booster[0]
0:[f4<2716820] yes=1,no=2,missing=1
	1:[f3<1968.98999] yes=3,no=4,missing=3
		3:[f5<141.170013] yes=7,no=8,missing=7
			7:[f3<1285.83008] yes=9,no=10,missing=9
				9:[f5<123.164993] yes=13,no=14,missing=13
					13:[f3<1282.41504] yes=21,no=22,missing=21
						21:leaf=0.100000001
						22:leaf=-0
					14:[f3<1283.48999] yes=23,no=24,missing=23
						23:leaf=-0.105882362
						24:leaf=-0
				10:[f5<121.065002] yes=15,no=16,missing=15
					15:[f2<55.9449997] yes=25,no=26,missing=25
						25:[f2<53.9650002] yes=37,no=38,missing=37
							37:leaf=-0.0500000007
							38:[f4<1771082] yes=51,no=52,missing=51
								51:leaf=-0
								52:leaf=0.127272725
						26:leaf=-0.127272725
					16:[f2<51.7450027] yes=27,no=28,missing=27
						27:[f4<2343936.5] yes=39,no=40,missing=39
							39:leaf=0.100000001
							40:[f5<131.76001] yes=53,no=54,missing=53
								53:leaf=0.0500000007
								54:[f5<139.665009] yes=67,no=68,missing=67
									67:leaf=-0.13333334
									68:leaf=-0
						28:[f4<2016101.5] yes=41,no=42,missing=41
							41:leaf=0.15384616
							42:[f3<1537.76001] yes=55,no=56,missing=55
								55:[f3<1297.89001] yes=69,no=70,missing=69
									69:leaf=0.14782609
									70:[f3<1327.20996] yes=83,no=84,missing=83
										83:[f3<1309.45508] yes=93,no=94,missing=93
											93:[f3<1307.27502] yes=111,no=112,missing=111
												111:leaf=-0.0181818195
												112:leaf=0.100000001
											94:[f3<1313.98511] yes=113,no=114,missing=113
												113:leaf=-0.100000001
												114:leaf=-0.0222222228
										84:[f4<2147369.5] yes=95,no=96,missing=95
											95:[f5<137.304993] yes=115,no=116,missing=115
												115:leaf=0.0222222228
												116:leaf=-0.0666666701
											96:[f4<2497676] yes=117,no=118,missing=117
												117:leaf=0.144444451
												118:[f3<1419.37] yes=131,no=132,missing=131
													131:leaf=0.120000005
													132:[f5<137.235001] yes=139,no=140,missing=139
														139:[f4<2578286] yes=143,no=144,missing=143
															143:leaf=-0.0222222228
															144:leaf=-0.100000001
														140:leaf=0.0909090936
								56:[f2<54.2949982] yes=71,no=72,missing=71
									71:leaf=-0
									72:leaf=-0.0500000007
			8:[f4<968609] yes=11,no=12,missing=11
				11:[f5<169.565002] yes=17,no=18,missing=17
					17:[f3<1602.75] yes=29,no=30,missing=29
						29:leaf=-0.0545454584
						30:[f0<24629272] yes=43,no=44,missing=43
							43:[f4<555722] yes=57,no=58,missing=57
								57:[f4<201751] yes=73,no=74,missing=73
									73:[f4<154387.5] yes=85,no=86,missing=85
										85:[f4<103137] yes=97,no=98,missing=97
											97:leaf=-0.0181818195
											98:[f4<126892] yes=119,no=120,missing=119
												119:leaf=0.120000005
												120:leaf=-0
										86:[f2<32.0849991] yes=99,no=100,missing=99
											99:leaf=-0
											100:leaf=-0.100000001
									74:[f3<1728.98499] yes=87,no=88,missing=87
										87:[f3<1712.29492] yes=101,no=102,missing=101
											101:leaf=0.142857149
											102:[f0<1995164] yes=121,no=122,missing=121
												121:leaf=-0.0666666701
												122:leaf=-0
										88:leaf=0.138461545
								58:[f4<719159] yes=75,no=76,missing=75
									75:[f4<677763.5] yes=89,no=90,missing=89
										89:[f4<614210] yes=103,no=104,missing=103
											103:[f0<4546168] yes=123,no=124,missing=123
												123:leaf=0.0666666701
												124:[f2<43.5400009] yes=133,no=134,missing=133
													133:leaf=-0.100000001
													134:leaf=0.0400000028
											104:[f2<41.5499992] yes=125,no=126,missing=125
												125:[f4<629750] yes=135,no=136,missing=135
													135:leaf=0.100000001
													136:leaf=-0.0666666701
												126:leaf=0.13333334
										90:[f0<5157537] yes=105,no=106,missing=105
											105:leaf=-0
											106:leaf=-0.13333334
									76:[f3<1942.495] yes=91,no=92,missing=91
										91:[f0<13986504] yes=107,no=108,missing=107
											107:[f2<39.8349991] yes=127,no=128,missing=127
												127:leaf=-0.0222222228
												128:[f3<1903.06494] yes=137,no=138,missing=137
													137:leaf=0.142857149
													138:[f3<1913.02002] yes=141,no=142,missing=141
														141:leaf=-0.0222222228
														142:leaf=0.100000001
											108:[f3<1847.77002] yes=129,no=130,missing=129
												129:leaf=-0.0909090936
												130:leaf=0.0909090936
										92:[f4<778062] yes=109,no=110,missing=109
											109:leaf=0.0400000028
											110:leaf=-0.0666666701
							44:leaf=-0.0400000028
					18:[f0<949761] yes=31,no=32,missing=31
						31:leaf=-0
						32:leaf=-0.111111119
				12:[f3<1575.14001] yes=19,no=20,missing=19
					19:[f3<1517.9751] yes=33,no=34,missing=33
						33:[f4<2537651] yes=45,no=46,missing=45
							45:[f5<143.824997] yes=59,no=60,missing=59
								59:[f2<50.8050003] yes=77,no=78,missing=77
									77:leaf=-0
									78:leaf=-0.138461545
								60:leaf=-0
							46:[f3<1505.08496] yes=61,no=62,missing=61
								61:leaf=0.100000001
								62:leaf=-0
						34:[f4<2097663] yes=47,no=48,missing=47
							47:leaf=0.13333334
							48:[f0<6.5] yes=63,no=64,missing=63
								63:[f5<147.26001] yes=79,no=80,missing=79
									79:leaf=-0.0800000057
									80:leaf=0.0500000007
								64:leaf=0.0666666701
					20:[f0<18339478] yes=35,no=36,missing=35
						35:[f5<145.720001] yes=49,no=50,missing=49
							49:leaf=-0.0181818195
							50:[f2<42.1849976] yes=65,no=66,missing=65
								65:leaf=-0.0222222228
								66:[f3<1638.91504] yes=81,no=82,missing=81
									81:leaf=-0.0400000028
									82:leaf=-0.152941182
						36:leaf=0.0222222228
		4:leaf=0.146666676
	2:[f2<53.0999985] yes=5,no=6,missing=5
		5:leaf=0.0400000028
		6:leaf=-0.138461545
booster[1]
0:[f4<2716820] yes=1,no=2,missing=1
	1:[f3<1968.98999] yes=3,no=4,missing=3
		3:[f5<169.565002] yes=7,no=8,missing=7
			7:[f5<141.170013] yes=9,no=10,missing=9
				9:[f3<1285.83008] yes=13,no=14,missing=13
					13:[f5<123.164993] yes=17,no=18,missing=17
						17:[f3<1282.41504] yes=25,no=26,missing=25
							25:leaf=0.0934944525
							26:leaf=-0
						18:[f3<1283.48999] yes=27,no=28,missing=27
							27:leaf=-0.0980026871
							28:leaf=-0
					14:[f5<121.065002] yes=19,no=20,missing=19
						19:[f2<55.9449997] yes=29,no=30,missing=29
							29:[f2<54.3000031] yes=39,no=40,missing=39
								39:leaf=-0.017529903
								40:leaf=0.0938344225
							30:leaf=-0.119491577
						20:[f2<51.7450027] yes=31,no=32,missing=31
							31:[f4<2343936.5] yes=41,no=42,missing=41
								41:leaf=0.0934944525
								42:[f4<2546988] yes=53,no=54,missing=53
									53:leaf=-0.112310432
									54:[f4<2630807] yes=65,no=66,missing=65
										65:leaf=0.0240970012
										66:leaf=-0.0233363397
							32:[f4<2016101.5] yes=43,no=44,missing=43
								43:leaf=0.141560018
								44:[f3<1297.89001] yes=55,no=56,missing=55
									55:leaf=0.136249229
									56:[f3<1327.20996] yes=67,no=68,missing=67
										67:[f3<1309.45508] yes=79,no=80,missing=79
											79:[f4<2495661] yes=91,no=92,missing=91
												91:leaf=-0.00127175427
												92:leaf=0.0650902316
											80:leaf=-0.0730536208
										68:[f4<2260430.5] yes=81,no=82,missing=81
											81:[f5<138.144989] yes=93,no=94,missing=93
												93:[f3<1481.94995] yes=103,no=104,missing=103
													103:leaf=0.087111555
													104:leaf=-0.000220325295
												94:leaf=-0.0773043558
											82:[f4<2497676] yes=95,no=96,missing=95
												95:leaf=0.126477107
												96:[f3<1419.37] yes=105,no=106,missing=105
													105:leaf=0.111504219
													106:[f5<137.235001] yes=113,no=114,missing=113
														113:leaf=-0.0730536208
														114:leaf=0.0852398723
				10:[f4<977479] yes=15,no=16,missing=15
					15:[f3<1602.75] yes=21,no=22,missing=21
						21:leaf=-0.051099427
						22:[f0<24629272] yes=33,no=34,missing=33
							33:[f4<577180.5] yes=45,no=46,missing=45
								45:[f4<201751] yes=57,no=58,missing=57
									57:[f4<154387.5] yes=69,no=70,missing=69
										69:[f4<103137] yes=83,no=84,missing=83
											83:leaf=-0.0170257166
											84:[f4<126892] yes=97,no=98,missing=97
												97:leaf=0.113052242
												98:leaf=-0
										70:leaf=-0.0633888468
									58:[f4<311442.5] yes=71,no=72,missing=71
										71:leaf=0.143884629
										72:[f4<404903] yes=85,no=86,missing=85
											85:leaf=-0.0357902013
											86:[f2<39.5999985] yes=99,no=100,missing=99
												99:leaf=-0.00176777726
												100:[f4<555722] yes=107,no=108,missing=107
													107:leaf=0.148188993
													108:leaf=0.0177095961
								46:[f2<39.6849976] yes=59,no=60,missing=59
									59:leaf=-0.0631939098
									60:[f4<614210] yes=73,no=74,missing=73
										73:[f0<6375156.5] yes=87,no=88,missing=87
											87:leaf=0.0368175842
											88:leaf=-0.105706744
										74:[f4<677763.5] yes=89,no=90,missing=89
											89:leaf=0.109413289
											90:[f4<719159] yes=101,no=102,missing=101
												101:[f0<5157537] yes=109,no=110,missing=109
													109:leaf=-0
													110:leaf=-0.119136386
												102:[f2<42.1849976] yes=111,no=112,missing=111
													111:[f2<40.3499985] yes=115,no=116,missing=115
														115:leaf=0.0212213155
														116:leaf=0.117099538
													112:[f5<161.540009] yes=117,no=118,missing=117
														117:[f3<1880.17505] yes=119,no=120,missing=119
															119:[f0<15036704] yes=123,no=124,missing=123
																123:leaf=0.0612267628
																124:leaf=-0.0652422979
															120:leaf=0.132309347
														118:[f0<5944818] yes=121,no=122,missing=121
															121:leaf=0.0198687837
															122:leaf=-0.108926497
							34:leaf=-0.0376093425
					16:[f3<1575.14001] yes=23,no=24,missing=23
						23:[f3<1517.9751] yes=35,no=36,missing=35
							35:[f4<2537651] yes=47,no=48,missing=47
								47:[f5<143.824997] yes=61,no=62,missing=61
									61:[f2<50.8050003] yes=75,no=76,missing=75
										75:leaf=-0
										76:leaf=-0.129318759
									62:leaf=-0
								48:leaf=0.0633888468
							36:[f4<2097663] yes=49,no=50,missing=49
								49:leaf=0.124826364
								50:[f0<6.5] yes=63,no=64,missing=63
									63:[f5<146.585007] yes=77,no=78,missing=77
										77:leaf=-0.0622798875
										78:leaf=0.0208983999
									64:leaf=0.0630032048
						24:[f0<18339478] yes=37,no=38,missing=37
							37:[f5<145.720001] yes=51,no=52,missing=51
								51:leaf=-0.0170257166
								52:leaf=-0.111771464
							38:leaf=0.0209891442
			8:[f3<1730.05493] yes=11,no=12,missing=11
				11:leaf=-0.0207494069
				12:leaf=-0.106323473
		4:leaf=0.136466607
	2:[f2<53.0999985] yes=5,no=6,missing=5
		5:leaf=0.0376093425
		6:leaf=-0.129318759
booster[2]
0:[f4<2716820] yes=1,no=2,missing=1
	1:[f3<1968.98999] yes=3,no=4,missing=3
		3:[f5<169.565002] yes=7,no=8,missing=7
			7:[f2<51.7150002] yes=9,no=10,missing=9
				9:[f4<2336528] yes=13,no=14,missing=13
					13:[f2<51.3050003] yes=17,no=18,missing=17
						17:[f5<156.290009] yes=25,no=26,missing=25
							25:[f5<147.244995] yes=39,no=40,missing=39
								39:[f5<143.934998] yes=51,no=52,missing=51
									51:[f2<50.9049988] yes=65,no=66,missing=65
										65:leaf=0.119549684
										66:leaf=0.0359696858
									52:[f5<144.804993] yes=67,no=68,missing=67
										67:leaf=-0.0823008344
										68:leaf=0.0414285697
								40:leaf=0.115665846
							26:[f4<977479] yes=41,no=42,missing=41
								41:[f3<1621.66003] yes=53,no=54,missing=53
									53:leaf=-0.0556324907
									54:[f0<5968905.5] yes=69,no=70,missing=69
										69:[f4<201751] yes=79,no=80,missing=79
											79:[f4<154387.5] yes=89,no=90,missing=89
												89:[f4<103137] yes=99,no=100,missing=99
													99:leaf=-0.0159447081
													100:leaf=0.0908425376
												90:leaf=-0.0592713021
											80:[f5<160.979996] yes=91,no=92,missing=91
												91:leaf=-0.0239166692
												92:[f4<632741] yes=101,no=102,missing=101
													101:[f0<4546168] yes=109,no=110,missing=109
														109:leaf=0.109822787
														110:leaf=0.0151792541
													102:[f4<710388.5] yes=111,no=112,missing=111
														111:leaf=-0.0537778921
														112:[f4<758688] yes=119,no=120,missing=119
															119:leaf=0.1102378
															120:leaf=0.0172529276
										70:[f4<814526] yes=81,no=82,missing=81
											81:[f4<674706.5] yes=93,no=94,missing=93
												93:[f3<1883.09998] yes=103,no=104,missing=103
													103:leaf=-0.0346314684
													104:[f5<163.440002] yes=113,no=114,missing=113
														113:leaf=0.0830102861
														114:leaf=0.0183442608
												94:[f5<164.105011] yes=105,no=106,missing=105
													105:[f4<760450.5] yes=115,no=116,missing=115
														115:leaf=-0.129333451
														116:leaf=-0.020858936
													106:leaf=0.0156338066
											82:[f2<40.0200005] yes=95,no=96,missing=95
												95:leaf=-0.035319224
												96:[f5<161.61499] yes=107,no=108,missing=107
													107:[f3<1880.17505] yes=117,no=118,missing=117
														117:leaf=0.0297286212
														118:leaf=0.11978551
													108:leaf=-0.00212753401
								42:[f0<18339478] yes=55,no=56,missing=55
									55:leaf=-0.110380769
									56:leaf=0.0198271107
						18:leaf=-0.0424896106
					14:[f4<2541849.5] yes=19,no=20,missing=19
						19:[f0<6] yes=27,no=28,missing=27
							27:leaf=-0.137739092
							28:leaf=-0.0188873187
						20:[f4<2594867.5] yes=29,no=30,missing=29
							29:leaf=0.061700996
							30:[f3<1490.09009] yes=43,no=44,missing=43
								43:leaf=0.0222906079
								44:leaf=-0.068285279
				10:[f3<1285.83008] yes=15,no=16,missing=15
					15:[f5<123.164993] yes=21,no=22,missing=21
						21:[f3<1282.41504] yes=31,no=32,missing=31
							31:leaf=0.0876842216
							32:leaf=-0
						22:[f3<1283.48999] yes=33,no=34,missing=33
							33:leaf=-0.0910636336
							34:leaf=-0
					16:[f5<121.065002] yes=23,no=24,missing=23
						23:[f2<55.9449997] yes=35,no=36,missing=35
							35:[f2<54.3000031] yes=45,no=46,missing=45
								45:leaf=-0.016416572
								46:leaf=0.0879923105
							36:leaf=-0.112729825
						24:[f3<1557.70508] yes=37,no=38,missing=37
							37:[f4<2484727.5] yes=47,no=48,missing=47
								47:[f5<138.149994] yes=57,no=58,missing=57
									57:[f5<121.850006] yes=71,no=72,missing=71
										71:[f5<121.625] yes=83,no=84,missing=83
											83:leaf=0.104593351
											84:leaf=-0.0255697053
										72:leaf=0.117727831
									58:[f5<138.880005] yes=73,no=74,missing=73
										73:leaf=-0.0366087444
										74:[f5<141.170013] yes=85,no=86,missing=85
											85:leaf=0.105293967
											86:leaf=0.0191306546
								48:[f4<2560609] yes=59,no=60,missing=59
									59:[f3<1303.25] yes=75,no=76,missing=75
										75:leaf=0.0598425865
										76:[f3<1314.69507] yes=87,no=88,missing=87
											87:leaf=-0.105932616
											88:[f2<54.6100006] yes=97,no=98,missing=97
												97:leaf=-0.049442064
												98:leaf=0.0759448335
									60:[f4<2672773] yes=77,no=78,missing=77
										77:leaf=0.11367967
										78:leaf=-0.00252416427
							38:[f4<752793] yes=49,no=50,missing=49
								49:[f2<52.8150024] yes=61,no=62,missing=61
									61:leaf=-0.0160230193
									62:leaf=0.103705183
								50:[f5<145.535004] yes=63,no=64,missing=63
									63:leaf=0.0319342129
									64:leaf=-0.0928742811
			8:[f2<36.2249985] yes=11,no=12,missing=11
				11:leaf=-0.0189030506
				12:leaf=-0.101542309
		4:leaf=0.127895996
	2:[f2<53.0999985] yes=5,no=6,missing=5
		5:leaf=0.0353777073
		6:leaf=-0.121523239
booster[3]
0:[f4<2716820] yes=1,no=2,missing=1
	1:[f3<1968.98999] yes=3,no=4,missing=3
		3:[f5<169.565002] yes=7,no=8,missing=7
			7:[f2<51.7150002] yes=9,no=10,missing=9
				9:[f4<2336528] yes=13,no=14,missing=13
					13:[f2<51.3050003] yes=17,no=18,missing=17
						17:[f5<156.290009] yes=25,no=26,missing=25
							25:[f5<147.244995] yes=39,no=40,missing=39
								39:[f5<143.934998] yes=57,no=58,missing=57
									57:[f3<1506.96997] yes=73,no=74,missing=73
										73:leaf=0.114206187
										74:leaf=0.0320886374
									58:[f5<144.804993] yes=75,no=76,missing=75
										75:leaf=-0.0773819014
										76:leaf=0.0389464162
								40:leaf=0.10706085
							26:[f4<977479] yes=41,no=42,missing=41
								41:[f3<1615.44507] yes=59,no=60,missing=59
									59:leaf=-0.0617117099
									60:[f0<5968905.5] yes=77,no=78,missing=77
										77:[f4<201751] yes=83,no=84,missing=83
											83:[f4<135505] yes=91,no=92,missing=91
												91:[f4<103137] yes=101,no=102,missing=101
													101:leaf=-0.0149336029
													102:leaf=0.0769152716
												92:[f3<1701.245] yes=103,no=104,missing=103
													103:leaf=-0.06262099
													104:leaf=-0.0132638281
											84:[f4<311442.5] yes=93,no=94,missing=93
												93:leaf=0.129209682
												94:[f2<39.6350021] yes=105,no=106,missing=105
													105:[f3<1728.98499] yes=119,no=120,missing=119
														119:leaf=-0.0808683038
														120:leaf=0.030796757
													106:[f0<2260602.5] yes=121,no=122,missing=121
														121:leaf=-0.00751850521
														122:[f5<166.830002] yes=129,no=130,missing=129
															129:[f3<1928.92993] yes=131,no=132,missing=131
																131:leaf=0.120834887
																132:leaf=0.0228797123
															130:leaf=0.0105319275
										78:[f4<814526] yes=85,no=86,missing=85
											85:[f4<674706.5] yes=95,no=96,missing=95
												95:[f3<1883.09998] yes=107,no=108,missing=107
													107:leaf=-0.03233229
													108:[f5<163.440002] yes=123,no=124,missing=123
														123:leaf=0.0781115815
														124:leaf=0.0173374228
												96:[f5<164.105011] yes=109,no=110,missing=109
													109:[f5<158.270004] yes=125,no=126,missing=125
														125:leaf=-0.0169700366
														126:leaf=-0.123202525
													110:leaf=0.014775686
											86:[f3<1899.56494] yes=97,no=98,missing=97
												97:[f5<158.475006] yes=111,no=112,missing=111
													111:leaf=0.0173254907
													112:leaf=0.13130258
												98:[f2<41.9350014] yes=113,no=114,missing=113
													113:leaf=0.0380192213
													114:leaf=-0.0686983094
								42:[f0<18339478] yes=61,no=62,missing=61
									61:leaf=-0.103294432
									62:leaf=0.0187315755
						18:leaf=-0.0396050587
					14:[f4<2541849.5] yes=19,no=20,missing=19
						19:[f0<6] yes=27,no=28,missing=27
							27:leaf=-0.129131898
							28:leaf=-0.0178483762
						20:[f4<2594867.5] yes=29,no=30,missing=29
							29:leaf=0.0577250011
							30:[f4<2639875] yes=43,no=44,missing=43
								43:leaf=-0.0656913221
								44:leaf=0.0222260486
				10:[f2<55.2949982] yes=15,no=16,missing=15
					15:[f5<141.170013] yes=21,no=22,missing=21
						21:[f4<2672773] yes=31,no=32,missing=31
							31:[f2<52.6849976] yes=45,no=46,missing=45
								45:[f4<2060448] yes=63,no=64,missing=63
									63:leaf=0.0504118614
									64:leaf=0.139506921
								46:[f2<54.4649963] yes=65,no=66,missing=65
									65:[f2<54.2200012] yes=79,no=80,missing=79
										79:[f2<52.9749985] yes=87,no=88,missing=87
											87:leaf=-0.028700335
											88:[f2<53.9000015] yes=99,no=100,missing=99
												99:[f5<131.725006] yes=115,no=116,missing=115
													115:leaf=-0.0386643559
													116:[f4<2236248] yes=127,no=128,missing=127
														127:leaf=0.023815766
														128:leaf=0.120130673
												100:[f4<2060233.5] yes=117,no=118,missing=117
													117:leaf=0.125010118
													118:leaf=0.0355838686
										80:[f2<54.2600021] yes=89,no=90,missing=89
											89:leaf=-0.112352848
											90:leaf=0.0417686291
									66:leaf=0.116516985
							32:leaf=-0.022419909
						22:[f5<144.059998] yes=33,no=34,missing=33
							33:leaf=-0.0721475184
							34:[f3<1592.83496] yes=47,no=48,missing=47
								47:leaf=0.112135008
								48:[f2<52.7449989] yes=67,no=68,missing=67
									67:[f4<773579.5] yes=81,no=82,missing=81
										81:leaf=-0.0102288229
										82:leaf=-0.0992135927
									68:leaf=0.082884185
					16:[f2<56.6549988] yes=23,no=24,missing=23
						23:[f3<1324.68994] yes=35,no=36,missing=35
							35:[f3<1297.61011] yes=49,no=50,missing=49
								49:[f3<1287.375] yes=69,no=70,missing=69
									69:leaf=-0.0826286525
									70:leaf=0.0552205741
								50:leaf=-0.09994068
							36:[f4<2146787.5] yes=51,no=52,missing=51
								51:leaf=-0.035033565
								52:leaf=0.0594774261
						24:[f3<1282.31494] yes=37,no=38,missing=37
							37:[f5<123.205002] yes=53,no=54,missing=53
								53:leaf=0.0639885217
								54:leaf=-0.0732741132
							38:[f5<121.714996] yes=55,no=56,missing=55
								55:leaf=-0.017479036
								56:[f2<57.5550003] yes=71,no=72,missing=71
									71:leaf=0.137903079
									72:leaf=0.00863471255
			8:[f3<1730.05493] yes=11,no=12,missing=11
				11:leaf=-0.0176493563
				12:leaf=-0.0967816561
		4:leaf=0.120573692
	2:[f2<53.0999985] yes=5,no=6,missing=5
		5:leaf=0.0332916044
		6:leaf=-0.114781454
booster[4]
0:[f4<2716820] yes=1,no=2,missing=1
	1:[f3<1968.98999] yes=3,no=4,missing=3
		3:[f5<169.565002] yes=7,no=8,missing=7
			7:[f2<51.7150002] yes=9,no=10,missing=9
				9:[f4<2336528] yes=13,no=14,missing=13
					13:[f4<2225389] yes=17,no=18,missing=17
						17:[f2<50.8700027] yes=25,no=26,missing=25
							25:[f2<48.2900009] yes=39,no=40,missing=39
								39:[f4<977479] yes=57,no=58,missing=57
									57:[f3<1871.82495] yes=71,no=72,missing=71
										71:[f4<803944] yes=81,no=82,missing=81
											81:[f3<1602.75] yes=91,no=92,missing=91
												91:leaf=-0.0701407716
												92:[f4<696657.5] yes=97,no=98,missing=97
													97:[f4<201751] yes=105,no=106,missing=105
														105:[f4<126892] yes=117,no=118,missing=117
															117:[f4<103137] yes=123,no=124,missing=123
																123:leaf=-0.0139876008
																124:leaf=0.101078145
															118:[f3<1701.245] yes=125,no=126,missing=125
																125:leaf=-0.0736246184
																126:leaf=0.00712901121
														106:[f4<311442.5] yes=119,no=120,missing=119
															119:leaf=0.121965788
															120:[f2<39.6350021] yes=127,no=128,missing=127
																127:[f3<1728.98499] yes=129,no=130,missing=129
																	129:leaf=-0.0760707483
																	130:leaf=0.0290060192
																128:[f0<2260602.5] yes=131,no=132,missing=131
																	131:leaf=0.00728742778
																	132:leaf=0.0951551348
													98:[f4<753201] yes=107,no=108,missing=107
														107:leaf=-0.0642676055
														108:leaf=0.0341937728
											82:leaf=0.119233809
										72:[f3<1880.92993] yes=83,no=84,missing=83
											83:leaf=-0.12636812
											84:[f5<161.570007] yes=93,no=94,missing=93
												93:[f2<40.8450012] yes=99,no=100,missing=99
													99:leaf=0.0140076252
													100:leaf=0.095034115
												94:[f5<164.434998] yes=101,no=102,missing=101
													101:[f4<657470] yes=109,no=110,missing=109
														109:leaf=0.0399381779
														110:leaf=-0.120389216
													102:[f3<1935.69507] yes=111,no=112,missing=111
														111:leaf=0.00843439903
														112:leaf=0.11451637
									58:[f5<156.429993] yes=73,no=74,missing=73
										73:leaf=0.0213561431
										74:[f4<1096048.5] yes=85,no=86,missing=85
											85:leaf=-0.105209723
											86:leaf=-0.036126405
								40:[f4<2097663] yes=59,no=60,missing=59
									59:[f7<21643.8555] yes=75,no=76,missing=75
										75:leaf=0.115199484
										76:leaf=0.0341075771
									60:leaf=-0.00177793484
							26:[f4<2005740.5] yes=41,no=42,missing=41
								41:leaf=-0.0198496245
								42:leaf=-0.0772966966
						18:leaf=0.0891181529
					14:[f4<2541849.5] yes=19,no=20,missing=19
						19:[f0<6] yes=27,no=28,missing=27
							27:leaf=-0.121788137
							28:leaf=-0.016868094
						20:[f4<2594867.5] yes=29,no=30,missing=29
							29:leaf=0.0540658534
							30:[f3<1490.09009] yes=43,no=44,missing=43
								43:leaf=0.0217784252
								44:leaf=-0.0628455058
				10:[f2<55.2949982] yes=15,no=16,missing=15
					15:[f5<141.170013] yes=21,no=22,missing=21
						21:[f4<2672773] yes=31,no=32,missing=31
							31:[f2<52.6849976] yes=45,no=46,missing=45
								45:[f4<2060448] yes=61,no=62,missing=61
									61:leaf=0.047311347
									62:leaf=0.130982935
								46:[f2<54.4649963] yes=63,no=64,missing=63
									63:[f2<54.2200012] yes=77,no=78,missing=77
										77:[f2<52.9749985] yes=87,no=88,missing=87
											87:leaf=-0.0268473811
											88:[f4<1822156.5] yes=95,no=96,missing=95
												95:leaf=0.114682816
												96:[f5<131.725006] yes=103,no=104,missing=103
													103:[f2<53.9550018] yes=113,no=114,missing=113
														113:leaf=-0.0581702888
														114:leaf=0.0699637085
													104:[f4<2260430.5] yes=115,no=116,missing=115
														115:[f5<138.464996] yes=121,no=122,missing=121
															121:leaf=0.0493697263
															122:leaf=-0.0263743978
														116:leaf=0.117248416
										78:[f2<54.2600021] yes=89,no=90,missing=89
											89:leaf=-0.106246226
											90:leaf=0.0392501839
									64:leaf=0.108603038
							32:leaf=-0.0211805589
						22:[f5<144.059998] yes=33,no=34,missing=33
							33:leaf=-0.0681141689
							34:[f3<1592.83496] yes=47,no=48,missing=47
								47:leaf=0.106149726
								48:[f2<52.7449989] yes=65,no=66,missing=65
									65:[f4<773579.5] yes=79,no=80,missing=79
										79:leaf=-0.00958334841
										80:leaf=-0.0944830254
									66:leaf=0.0780173913
					16:[f2<56.6549988] yes=23,no=24,missing=23
						23:[f3<1324.68994] yes=35,no=36,missing=35
							35:[f3<1305.56494] yes=49,no=50,missing=49
								49:[f3<1289.21509] yes=67,no=68,missing=67
									67:leaf=-0.0831139982
									68:leaf=0.0403246619
								50:leaf=-0.102408044
							36:[f4<2146787.5] yes=51,no=52,missing=51
								51:leaf=-0.0330340452
								52:leaf=0.0557353571
						24:[f3<1282.31494] yes=37,no=38,missing=37
							37:[f5<123.205002] yes=53,no=54,missing=53
								53:leaf=0.0605542138
								54:leaf=-0.0691975057
							38:[f5<121.714996] yes=55,no=56,missing=55
								55:leaf=-0.0165247228
								56:[f2<57.5550003] yes=69,no=70,missing=69
									69:leaf=0.129737273
									70:leaf=0.00809341948
			8:[f2<36.2249985] yes=11,no=12,missing=11
				11:leaf=-0.0160278846
				12:leaf=-0.0928983316
		4:leaf=0.114225388
	2:[f2<53.0999985] yes=5,no=6,missing=5
		5:leaf=0.0313391201
		6:leaf=-0.108876601
booster[5]
0:[f3<1968.98999] yes=1,no=2,missing=1
	1:[f5<169.565002] yes=3,no=4,missing=3
		3:[f4<2716820] yes=5,no=6,missing=5
			5:[f5<141.170013] yes=9,no=10,missing=9
				9:[f2<55.2949982] yes=13,no=14,missing=13
					13:[f4<2484579.5] yes=17,no=18,missing=17
						17:[f3<1466.31006] yes=25,no=26,missing=25
							25:[f3<1461.53503] yes=39,no=40,missing=39
								39:[f2<53.4249992] yes=59,no=60,missing=59
									59:[f3<1330.32007] yes=79,no=80,missing=79
										79:leaf=-0.0420363024
										80:leaf=0.0311019998
									60:[f3<1312.02002] yes=81,no=82,missing=81
										81:[f3<1305.76001] yes=103,no=104,missing=103
											103:[f2<53.9650002] yes=115,no=116,missing=115
												115:leaf=0.0227821451
												116:leaf=0.0940048769
											104:leaf=-0.0348333232
										82:leaf=0.124772035
								40:leaf=-0.0607699044
							26:[f3<1556.83008] yes=41,no=42,missing=41
								41:leaf=0.10818857
								42:leaf=0.0150705716
						18:[f3<1419.31006] yes=27,no=28,missing=27
							27:[f3<1396.57007] yes=43,no=44,missing=43
								43:[f3<1334.98999] yes=61,no=62,missing=61
									61:leaf=0.0166255236
									62:leaf=0.00320064137
								44:leaf=0.0925030336
							28:[f4<2594499] yes=45,no=46,missing=45
								45:[f4<2552896] yes=63,no=64,missing=63
									63:leaf=-0.0305111948
									64:leaf=0.091780737
								46:leaf=-0.0740808472
					14:[f2<56.6549988] yes=19,no=20,missing=19
						19:[f4<2573299] yes=29,no=30,missing=29
							29:[f4<2525491] yes=47,no=48,missing=47
								47:[f4<2158292] yes=65,no=66,missing=65
									65:[f4<2000510.5] yes=83,no=84,missing=83
										83:leaf=-0.0245613363
										84:leaf=-0.098980777
									66:[f3<1295.87] yes=85,no=86,missing=85
										85:leaf=0.0532342568
										86:[f2<55.9099998] yes=105,no=106,missing=105
											105:leaf=0.0515119135
											106:leaf=-0.077160351
								48:leaf=-0.102638103
							30:leaf=0.0544609018
						20:[f2<58.2099991] yes=31,no=32,missing=31
							31:[f5<121.714996] yes=49,no=50,missing=49
								49:leaf=-0.0156236431
								50:[f3<1282.31494] yes=67,no=68,missing=67
									67:leaf=-0.00605912087
									68:[f2<57.5550003] yes=87,no=88,missing=87
										87:leaf=0.122768164
										88:leaf=0.0327564515
							32:leaf=-0.0294487383
				10:[f4<968609] yes=15,no=16,missing=15
					15:[f3<1602.75] yes=21,no=22,missing=21
						21:leaf=-0.0440124534
						22:[f0<24629272] yes=33,no=34,missing=33
							33:[f4<555722] yes=51,no=52,missing=51
								51:[f4<201751] yes=69,no=70,missing=69
									69:[f4<154387.5] yes=89,no=90,missing=89
										89:[f5<168.139999] yes=107,no=108,missing=107
											107:[f5<166.309998] yes=117,no=118,missing=117
												117:leaf=0.0155556574
												118:leaf=0.0948680639
											108:leaf=-0.0246157125
										90:leaf=-0.0521028228
									70:[f3<1728.98499] yes=91,no=92,missing=91
										91:[f3<1712.29492] yes=109,no=110,missing=109
											109:leaf=0.109708205
											110:leaf=-0.0431522503
										92:leaf=0.107082821
								52:[f4<719159] yes=71,no=72,missing=71
									71:[f4<701589] yes=93,no=94,missing=93
										93:[f2<42.5749969] yes=111,no=112,missing=111
											111:[f0<6504525.5] yes=119,no=120,missing=119
												119:[f4<629507] yes=127,no=128,missing=127
													127:leaf=0.0753647387
													128:leaf=-0.0289570075
												120:[f3<1883.09998] yes=129,no=130,missing=129
													129:leaf=-0.0968454033
													130:leaf=-0.0177106671
											112:[f4<588733.5] yes=121,no=122,missing=121
												121:leaf=0.00591407996
												122:leaf=0.10573931
										94:leaf=-0.0862412006
									72:[f5<164.434998] yes=95,no=96,missing=95
										95:[f5<161.600006] yes=113,no=114,missing=113
											113:[f3<1881.13501] yes=123,no=124,missing=123
												123:[f5<158.955002] yes=131,no=132,missing=131
													131:[f5<157.505005] yes=135,no=136,missing=135
														135:leaf=0.0284761395
														136:leaf=-0.107912242
													132:leaf=0.0908770487
												124:[f4<889124] yes=133,no=134,missing=133
													133:leaf=0.125107989
													134:leaf=0.0135618197
											114:[f3<1910.60999] yes=125,no=126,missing=125
												125:leaf=0.0177626517
												126:leaf=-0.11071346
										96:leaf=0.095100306
							34:leaf=-0.0301313233
					16:[f3<1575.14001] yes=23,no=24,missing=23
						23:[f3<1549.82495] yes=35,no=36,missing=35
							35:[f5<143.824997] yes=53,no=54,missing=53
								53:[f3<1504.41504] yes=73,no=74,missing=73
									73:[f5<142.604996] yes=97,no=98,missing=97
										97:leaf=0.0205717813
										98:leaf=-0.0631921515
									74:leaf=-0.0998147428
								54:[f4<2431582.5] yes=75,no=76,missing=75
									75:[f2<50.375] yes=99,no=100,missing=99
										99:leaf=-0.0257833302
										100:leaf=0.111316301
									76:[f2<51.1149979] yes=101,no=102,missing=101
										101:leaf=0.023948228
										102:leaf=-0.0276833214
							36:[f3<1567.53003] yes=55,no=56,missing=55
								55:leaf=0.103875533
								56:leaf=0.0187856518
						24:[f0<18339478] yes=37,no=38,missing=37
							37:[f5<160.705002] yes=57,no=58,missing=57
								57:[f5<145.720001] yes=77,no=78,missing=77
									77:leaf=-0.0149825504
									78:leaf=-0.104286455
								58:leaf=-0.00617086235
							38:leaf=0.0179129522
			6:[f2<53.0999985] yes=11,no=12,missing=11
				11:leaf=0.0295097716
				12:leaf=-0.103645623
		4:[f0<949761] yes=7,no=8,missing=7
			7:leaf=-0.0143823987
			8:leaf=-0.0894853398
	2:leaf=0.108649112
booster[6]
0:[f3<1968.98999] yes=1,no=2,missing=1
	1:[f5<169.565002] yes=3,no=4,missing=3
		3:[f4<2716820] yes=5,no=6,missing=5
			5:[f2<51.7150002] yes=9,no=10,missing=9
				9:[f4<2336528] yes=13,no=14,missing=13
					13:[f2<51.3050003] yes=17,no=18,missing=17
						17:[f5<156.290009] yes=25,no=26,missing=25
							25:[f5<147.244995] yes=37,no=38,missing=37
								37:[f5<143.934998] yes=51,no=52,missing=51
									51:[f3<1506.96997] yes=67,no=68,missing=67
										67:leaf=0.101688206
										68:leaf=0.0272906516
									52:[f5<144.804993] yes=69,no=70,missing=69
										69:leaf=-0.0716514066
										70:leaf=0.0349772386
								38:leaf=0.0968303829
							26:[f3<1602.75] yes=39,no=40,missing=39
								39:leaf=-0.101010479
								40:[f4<977479] yes=53,no=54,missing=53
									53:[f4<555722] yes=71,no=72,missing=71
										71:[f4<201751] yes=85,no=86,missing=85
											85:[f4<126892] yes=95,no=96,missing=95
												95:[f4<103137] yes=105,no=106,missing=105
													105:leaf=-0.0129985809
													106:leaf=0.0934626162
												96:[f3<1701.245] yes=107,no=108,missing=107
													107:leaf=-0.0689820126
													108:leaf=0.00916109141
											86:[f5<161.070007] yes=97,no=98,missing=97
												97:leaf=0.00505702663
												98:leaf=0.0910667554
										72:[f4<719159] yes=87,no=88,missing=87
											87:[f0<4710756.5] yes=99,no=100,missing=99
												99:[f4<632741] yes=109,no=110,missing=109
													109:leaf=0.0789029226
													110:leaf=-0.031626448
												100:[f2<40.6549988] yes=111,no=112,missing=111
													111:leaf=0.0263441037
													112:[f2<43.5400009] yes=117,no=118,missing=117
														117:[f5<159.850006] yes=127,no=128,missing=127
															127:leaf=-0.0169448983
															128:leaf=-0.0973257348
														118:leaf=-0.0182827599
											88:[f5<164.434998] yes=101,no=102,missing=101
												101:[f5<161.61499] yes=113,no=114,missing=113
													113:[f3<1881.13501] yes=119,no=120,missing=119
														119:[f5<158.955002] yes=129,no=130,missing=129
															129:leaf=-0.0868711323
															130:leaf=0.0869301111
														120:[f4<889124] yes=131,no=132,missing=131
															131:leaf=0.116342604
															132:leaf=0.0241539236
													114:[f3<1910.60999] yes=121,no=122,missing=121
														121:leaf=0.0167964566
														122:leaf=-0.110045634
												102:leaf=0.0894236863
									54:[f4<1096048.5] yes=73,no=74,missing=73
										73:leaf=-0.104120374
										74:leaf=0.0174054131
						18:leaf=-0.0367164724
					14:[f4<2541849.5] yes=19,no=20,missing=19
						19:[f0<6] yes=27,no=28,missing=27
							27:leaf=-0.114138082
							28:leaf=-0.0139720291
						20:[f4<2594867.5] yes=29,no=30,missing=29
							29:leaf=0.0497143082
							30:[f4<2639875] yes=41,no=42,missing=41
								41:leaf=-0.0591963604
								42:leaf=0.0228492003
				10:[f2<55.2949982] yes=15,no=16,missing=15
					15:[f5<141.170013] yes=21,no=22,missing=21
						21:[f4<2672773] yes=31,no=32,missing=31
							31:[f2<52.6849976] yes=43,no=44,missing=43
								43:[f4<2060448] yes=55,no=56,missing=55
									55:leaf=0.0412483737
									56:leaf=0.120291583
								44:[f2<54.4649963] yes=57,no=58,missing=57
									57:[f2<54.2200012] yes=75,no=76,missing=75
										75:[f2<52.9749985] yes=89,no=90,missing=89
											89:leaf=-0.0260708183
											90:[f4<1822156.5] yes=103,no=104,missing=103
												103:leaf=0.104489759
												104:[f5<131.725006] yes=115,no=116,missing=115
													115:[f2<53.9550018] yes=123,no=124,missing=123
														123:leaf=-0.0559903346
														124:leaf=0.0631804168
													116:[f4<2260430.5] yes=125,no=126,missing=125
														125:[f4<2054624] yes=133,no=134,missing=133
															133:leaf=0.0442305841
															134:leaf=-0.0268542357
														126:leaf=0.108418763
										76:[f2<54.2600021] yes=91,no=92,missing=91
											91:leaf=-0.100217782
											92:leaf=0.0324832499
									58:leaf=0.0977194607
							32:leaf=-0.0206968766
						22:[f5<144.059998] yes=33,no=34,missing=33
							33:leaf=-0.0616851151
							34:[f3<1592.83496] yes=45,no=46,missing=45
								45:leaf=0.0978281274
								46:[f2<52.7449989] yes=59,no=60,missing=59
									59:[f4<773579.5] yes=77,no=78,missing=77
										77:leaf=-0.0071200789
										78:leaf=-0.0883479267
									60:leaf=0.0716752335
					16:[f5<121.134995] yes=23,no=24,missing=23
						23:leaf=-0.0850343183
						24:[f2<56.2150002] yes=35,no=36,missing=35
							35:[f2<55.9099998] yes=47,no=48,missing=47
								47:[f2<55.5699997] yes=61,no=62,missing=61
									61:leaf=-0.0419964604
									62:leaf=0.050652869
								48:leaf=-0.111544691
							36:[f3<1285.06494] yes=49,no=50,missing=49
								49:[f5<123.164993] yes=63,no=64,missing=63
									63:leaf=0.0584998094
									64:[f4<2485792] yes=79,no=80,missing=79
										79:leaf=-0.0910824463
										80:leaf=0.00485659158
								50:[f3<1303.90503] yes=65,no=66,missing=65
									65:[f3<1288.93994] yes=81,no=82,missing=81
										81:leaf=0.036542628
										82:leaf=0.124217503
									66:[f3<1324.39502] yes=83,no=84,missing=83
										83:[f3<1309.45508] yes=93,no=94,missing=93
											93:leaf=0.00711857295
											94:leaf=-0.0540912263
										84:leaf=0.071069248
			6:[f2<53.0999985] yes=11,no=12,missing=11
				11:leaf=0.0277941823
				12:leaf=-0.0989640579
		4:[f3<1730.05493] yes=7,no=8,missing=7
			7:leaf=-0.0133624673
			8:leaf=-0.085872747
	2:leaf=0.103693485
booster[7]
0:[f3<1968.98999] yes=1,no=2,missing=1
	1:[f5<169.565002] yes=3,no=4,missing=3
		3:[f4<2716820] yes=5,no=6,missing=5
			5:[f4<2648852.5] yes=9,no=10,missing=9
				9:[f4<2512914.5] yes=13,no=14,missing=13
					13:[f5<141.170013] yes=17,no=18,missing=17
						17:[f5<121.080002] yes=21,no=22,missing=21
							21:[f2<55.9700012] yes=29,no=30,missing=29
								29:[f5<120.345001] yes=41,no=42,missing=41
									41:leaf=0.0979033634
									42:[f2<54.3050003] yes=55,no=56,missing=55
										55:leaf=-0.0722296238
										56:leaf=0.0455247723
								30:leaf=-0.0974852294
							22:[f4<1968207.5] yes=31,no=32,missing=31
								31:leaf=0.114631057
								32:[f3<1278.46497] yes=43,no=44,missing=43
									43:leaf=-0.0381804928
									44:[f2<56.3800011] yes=57,no=58,missing=57
										57:[f2<55.5400009] yes=71,no=72,missing=71
											71:[f4<2243927.5] yes=81,no=82,missing=81
												81:[f5<138.149994] yes=87,no=88,missing=87
													87:[f2<54.0650024] yes=97,no=98,missing=97
														97:[f5<128.934998] yes=109,no=110,missing=109
															109:leaf=-0.0288897306
															110:leaf=0.0297346022
														98:leaf=0.0890895352
													88:[f2<53.5599976] yes=99,no=100,missing=99
														99:leaf=0.0135567291
														100:leaf=-0.106578067
												82:[f2<51.7399979] yes=89,no=90,missing=89
													89:leaf=-0.0053192284
													90:leaf=0.0905344412
											72:leaf=-0.0610335581
										58:[f2<57.5750008] yes=73,no=74,missing=73
											73:leaf=0.106483914
											74:leaf=0.00539775146
						18:[f4<1934661.5] yes=23,no=24,missing=23
							23:[f5<156.290009] yes=33,no=34,missing=33
								33:[f0<23102752] yes=45,no=46,missing=45
									45:[f5<144.669998] yes=59,no=60,missing=59
										59:leaf=-0.0172616336
										60:leaf=0.106137872
									46:[f5<152.154999] yes=61,no=62,missing=61
										61:leaf=-0.0589269996
										62:leaf=0.0357342772
								34:[f3<1602.75] yes=47,no=48,missing=47
									47:leaf=-0.0962121114
									48:[f4<555722] yes=63,no=64,missing=63
										63:[f3<1764.79004] yes=75,no=76,missing=75
											75:[f2<39.2449989] yes=83,no=84,missing=83
												83:[f4<201751] yes=91,no=92,missing=91
													91:[f4<154387.5] yes=101,no=102,missing=101
														101:[f5<168.139999] yes=111,no=112,missing=111
															111:[f5<166.309998] yes=119,no=120,missing=119
																119:leaf=0.0148443533
																120:leaf=0.0883932486
															112:leaf=-0.0230983011
														102:leaf=-0.0477175042
													92:[f4<311442.5] yes=103,no=104,missing=103
														103:leaf=0.107409693
														104:leaf=0.0197487492
												84:leaf=-0.0594034903
											76:leaf=0.107286267
										64:[f2<48.2900009] yes=77,no=78,missing=77
											77:[f2<45.5449982] yes=85,no=86,missing=85
												85:[f3<1869.53003] yes=93,no=94,missing=93
													93:[f4<710388.5] yes=105,no=106,missing=105
														105:[f4<632741] yes=113,no=114,missing=113
															113:leaf=0.0481603518
															114:leaf=-0.0736879632
														106:leaf=0.108345844
													94:[f5<164.434998] yes=107,no=108,missing=107
														107:[f5<161.449997] yes=115,no=116,missing=115
															115:[f3<1883.90002] yes=121,no=122,missing=121
																121:leaf=-0.0968274698
																122:[f0<8140148.5] yes=125,no=126,missing=125
																	125:leaf=0.101913489
																	126:[f5<158.639999] yes=127,no=128,missing=127
																		127:leaf=0.0968477428
																		128:leaf=-0.0430551283
															116:[f2<41.7900009] yes=123,no=124,missing=123
																123:leaf=-0.0151277781
																124:leaf=-0.121327616
														108:[f3<1935.69507] yes=117,no=118,missing=117
															117:leaf=0.00451697642
															118:leaf=0.101629019
												86:[f3<1863.76501] yes=95,no=96,missing=95
													95:leaf=-0.0951515362
													96:leaf=-0.0234937798
											78:leaf=0.0720133707
							24:[f3<1569.16504] yes=35,no=36,missing=35
								35:[f3<1549.82495] yes=49,no=50,missing=49
									49:[f5<143.820007] yes=65,no=66,missing=65
										65:[f2<51.2750015] yes=79,no=80,missing=79
											79:leaf=-0.00806170329
											80:leaf=-0.102277219
										66:leaf=0.0262330826
									50:leaf=0.100499868
								36:[f2<51.7450027] yes=51,no=52,missing=51
									51:[f4<2109828] yes=67,no=68,missing=67
										67:leaf=-0.0368062332
										68:leaf=-0.113453209
									52:leaf=-0.00882567652
					14:[f2<51.5550003] yes=19,no=20,missing=19
						19:[f2<50.8950005] yes=25,no=26,missing=25
							25:leaf=-0.000678852317
							26:leaf=-0.094113037
						20:[f2<53.5750008] yes=27,no=28,missing=27
							27:[f5<140.520004] yes=37,no=38,missing=37
								37:leaf=0.0999434814
								38:leaf=-0.000484161137
							28:[f4<2608148.5] yes=39,no=40,missing=39
								39:[f4<2532672.5] yes=53,no=54,missing=53
									53:leaf=-0.0116369417
									54:[f5<124.345001] yes=69,no=70,missing=69
										69:leaf=-0.0176676568
										70:leaf=-0.0825234652
								40:leaf=0.0573157743
				10:[f4<2674660.5] yes=15,no=16,missing=15
					15:leaf=0.102219403
					16:leaf=0.0320580266
			6:[f2<53.0999985] yes=11,no=12,missing=11
				11:leaf=0.0261839516
				12:leaf=-0.0947355926
		4:[f2<36.2249985] yes=7,no=8,missing=7
			7:leaf=-0.0120372688
			8:leaf=-0.0828975067
	2:leaf=0.0992430076
booster[8]
0:[f3<1968.98999] yes=1,no=2,missing=1
	1:[f5<169.565002] yes=3,no=4,missing=3
		3:[f4<2716820] yes=5,no=6,missing=5
			5:[f4<2648852.5] yes=9,no=10,missing=9
				9:[f4<2512914.5] yes=13,no=14,missing=13
					13:[f5<141.170013] yes=17,no=18,missing=17
						17:[f5<121.080002] yes=21,no=22,missing=21
							21:[f2<55.9700012] yes=29,no=30,missing=29
								29:[f5<120.345001] yes=41,no=42,missing=41
									41:leaf=0.0934132114
									42:[f2<54.3050003] yes=53,no=54,missing=53
										53:leaf=-0.0682147518
										54:leaf=0.0432842635
								30:leaf=-0.0931645483
							22:[f4<1968207.5] yes=31,no=32,missing=31
								31:leaf=0.108334534
								32:[f3<1283.48999] yes=43,no=44,missing=43
									43:[f5<123.164993] yes=55,no=56,missing=55
										55:leaf=0.0409956612
										56:leaf=-0.0631993562
									44:[f3<1293.81494] yes=57,no=58,missing=57
										57:leaf=0.0922610089
										58:[f4<2276008] yes=71,no=72,missing=71
											71:[f5<138.149994] yes=79,no=80,missing=79
												79:[f2<54.0650024] yes=87,no=88,missing=87
													87:leaf=-0.0219963882
													88:[f2<55.0400009] yes=101,no=102,missing=101
														101:leaf=0.0902149901
														102:leaf=-0.00489781052
												80:[f2<53.3400002] yes=89,no=90,missing=89
													89:leaf=0.0506658331
													90:leaf=-0.110958636
											72:[f4<2337758] yes=81,no=82,missing=81
												81:leaf=0.108912818
												82:[f2<51.7399979] yes=91,no=92,missing=91
													91:leaf=-0.0767330825
													92:[f2<55.7299995] yes=103,no=104,missing=103
														103:[f4<2366885.5] yes=113,no=114,missing=113
															113:leaf=0.00133901672
															114:leaf=0.0954394266
														104:leaf=-0.0281137209
						18:[f4<1934661.5] yes=23,no=24,missing=23
							23:[f5<156.290009] yes=33,no=34,missing=33
								33:[f0<23102752] yes=45,no=46,missing=45
									45:[f5<144.669998] yes=59,no=60,missing=59
										59:leaf=-0.016322488
										60:leaf=0.099330999
									46:[f5<152.154999] yes=61,no=62,missing=61
										61:leaf=-0.0558744147
										62:leaf=0.0336484723
								34:[f3<1602.75] yes=47,no=48,missing=47
									47:leaf=-0.091879271
									48:[f4<555722] yes=63,no=64,missing=63
										63:[f4<510756.5] yes=73,no=74,missing=73
											73:[f0<1852291] yes=83,no=84,missing=83
												83:[f4<201751] yes=93,no=94,missing=93
													93:[f5<164.729996] yes=105,no=106,missing=105
														105:leaf=-0.0576477759
														106:[f3<1701.245] yes=115,no=116,missing=115
															115:[f2<35.2249985] yes=121,no=122,missing=121
																121:leaf=-0.0689254552
																122:leaf=0.0619652458
															116:leaf=0.0634678528
													94:[f4<311442.5] yes=107,no=108,missing=107
														107:leaf=0.102809869
														108:leaf=0.00818163808
												84:[f2<39.8800011] yes=95,no=96,missing=95
													95:leaf=-0.0690009668
													96:leaf=0.0191351064
											74:leaf=0.105261125
										64:[f2<48.2900009] yes=75,no=76,missing=75
											75:[f2<45.5449982] yes=85,no=86,missing=85
												85:[f2<39.8349991] yes=97,no=98,missing=97
													97:[f5<159.274994] yes=109,no=110,missing=109
														109:leaf=0.0217776503
														110:leaf=-0.0820818171
													98:[f3<1907.46997] yes=111,no=112,missing=111
														111:[f4<719159] yes=117,no=118,missing=117
															117:[f4<696657.5] yes=123,no=124,missing=123
																123:[f4<617560.5] yes=129,no=130,missing=129
																	129:leaf=-0.0215275139
																	130:[f4<639147] yes=133,no=134,missing=133
																		133:leaf=0.0921481177
																		134:leaf=0.0200414173
																124:leaf=-0.059085466
															118:[f2<42.1200027] yes=125,no=126,missing=125
																125:leaf=0.117305748
																126:[f2<42.6149979] yes=131,no=132,missing=131
																	131:leaf=-0.00171722809
																	132:leaf=0.0513251722
														112:[f5<164.440002] yes=119,no=120,missing=119
															119:[f5<161.600006] yes=127,no=128,missing=127
																127:leaf=0.0420097746
																128:leaf=-0.101780131
															120:leaf=0.0556274839
												86:[f3<1863.76501] yes=99,no=100,missing=99
													99:leaf=-0.0897751525
													100:leaf=-0.0221923199
											76:leaf=0.06814944
							24:[f3<1615.63] yes=35,no=36,missing=35
								35:[f0<9] yes=49,no=50,missing=49
									49:[f5<145.074997] yes=65,no=66,missing=65
										65:[f2<50.7949982] yes=77,no=78,missing=77
											77:leaf=0.0150241796
											78:leaf=-0.0933403224
										66:leaf=0.0197503436
									50:[f2<50.9400024] yes=67,no=68,missing=67
										67:leaf=0.0689727515
										68:leaf=0.00169297052
								36:leaf=-0.103510261
					14:[f2<51.5550003] yes=19,no=20,missing=19
						19:[f2<50.8950005] yes=25,no=26,missing=25
							25:leaf=-0.000638651254
							26:leaf=-0.088351123
						20:[f2<53.5750008] yes=27,no=28,missing=27
							27:[f5<140.520004] yes=37,no=38,missing=37
								37:leaf=0.0954222754
								38:leaf=-0.000455461588
							28:[f4<2608148.5] yes=39,no=40,missing=39
								39:[f6<3.75] yes=51,no=52,missing=51
									51:leaf=-0.0150417527
									52:[f2<56.875] yes=69,no=70,missing=69
										69:leaf=-0.0947049782
										70:leaf=-0.0185931269
								40:leaf=0.0544147864
				10:[f4<2674660.5] yes=15,no=16,missing=15
					15:leaf=0.0975048691
					16:leaf=0.0299461186
			6:[f2<53.0999985] yes=11,no=12,missing=11
				11:leaf=0.0246715229
				12:leaf=-0.0908847526
		4:[f0<949761] yes=7,no=8,missing=7
			7:leaf=-0.010669711
			8:leaf=-0.0802708864
	2:leaf=0.0952084884
booster[9]
0:[f3<1968.98999] yes=1,no=2,missing=1
	1:[f5<169.565002] yes=3,no=4,missing=3
		3:[f4<2709604] yes=5,no=6,missing=5
			5:[f4<2648852.5] yes=9,no=10,missing=9
				9:[f4<2512914.5] yes=13,no=14,missing=13
					13:[f5<141.170013] yes=15,no=16,missing=15
						15:[f2<55.5400009] yes=19,no=20,missing=19
							19:[f3<1466.31006] yes=27,no=28,missing=27
								27:[f3<1461.53503] yes=39,no=40,missing=39
									39:[f2<53.4249992] yes=55,no=56,missing=55
										55:[f3<1326.64502] yes=69,no=70,missing=69
											69:leaf=-0.0366975628
											70:[f2<52.5400009] yes=83,no=84,missing=83
												83:leaf=0.0504882745
												84:leaf=0.00344224903
										56:[f2<54.9499969] yes=71,no=72,missing=71
											71:[f3<1312.02002] yes=85,no=86,missing=85
												85:[f5<120.345001] yes=91,no=92,missing=91
													91:leaf=0.0820296481
													92:[f5<121.270004] yes=97,no=98,missing=97
														97:leaf=-0.0241338816
														98:leaf=0.0360077433
												86:leaf=0.104985617
											72:leaf=0.0148625886
									40:leaf=-0.0588326938
								28:[f4<2474847.5] yes=41,no=42,missing=41
									41:[f3<1556.83008] yes=57,no=58,missing=57
										57:leaf=0.0902441218
										58:leaf=0.0147146881
									42:leaf=0.00821445417
							20:[f5<121.134995] yes=29,no=30,missing=29
								29:leaf=-0.0892334729
								30:[f2<56.2150002] yes=43,no=44,missing=43
									43:leaf=-0.0705720112
									44:[f3<1278.46497] yes=59,no=60,missing=59
										59:leaf=-0.035691455
										60:[f5<123.925003] yes=73,no=74,missing=73
											73:leaf=0.106866196
											74:[f3<1298.28003] yes=87,no=88,missing=87
												87:leaf=0.0404985212
												88:leaf=-0.0273504443
						16:[f4<1934661.5] yes=21,no=22,missing=21
							21:[f5<156.290009] yes=31,no=32,missing=31
								31:[f0<22209520] yes=45,no=46,missing=45
									45:[f5<144.669998] yes=61,no=62,missing=61
										61:leaf=-0.0154354889
										62:[f3<1856.02502] yes=75,no=76,missing=75
											75:leaf=0.116258934
											76:leaf=0.028135851
									46:[f2<52.5950012] yes=63,no=64,missing=63
										63:leaf=-0.0627790615
										64:leaf=0.0461755507
								32:[f3<1602.75] yes=47,no=48,missing=47
									47:leaf=-0.0879391953
									48:[f5<157.259995] yes=65,no=66,missing=65
										65:[f4<944584] yes=77,no=78,missing=77
											77:leaf=0.00974049419
											78:leaf=-0.0675866306
										66:[f5<157.505005] yes=79,no=80,missing=79
											79:leaf=0.099542968
											80:[f0<7840283.5] yes=89,no=90,missing=89
												89:[f3<1943.67993] yes=93,no=94,missing=93
													93:[f2<41.5499992] yes=99,no=100,missing=99
														99:[f5<163.625] yes=105,no=106,missing=105
															105:[f4<507065] yes=111,no=112,missing=111
																111:[f0<1907960] yes=119,no=120,missing=119
																	119:[f2<36.9850006] yes=129,no=130,missing=129
																		129:leaf=0.0237975139
																		130:leaf=0.078686364
																	120:leaf=-0.0502835326
																112:leaf=0.0814400166
															106:[f4<501131.5] yes=113,no=114,missing=113
																113:[f5<168.139999] yes=121,no=122,missing=121
																	121:[f4<154387.5] yes=131,no=132,missing=131
																		131:[f2<35.5699997] yes=133,no=134,missing=133
																			133:leaf=0.09293174
																			134:leaf=0.0177854393
																		132:[f4<190670] yes=135,no=136,missing=135
																			135:leaf=-0.0601217411
																			136:leaf=0.0476195775
																	122:leaf=-0.0224264655
																114:[f5<164.785004] yes=123,no=124,missing=123
																	123:leaf=-0.0257918127
																	124:leaf=-0.10024976
														100:[f4<826322.5] yes=107,no=108,missing=107
															107:[f5<164.139999] yes=115,no=116,missing=115
																115:leaf=0.0115632219
																116:[f5<166.942505] yes=125,no=126,missing=125
																	125:leaf=0.112079076
																	126:leaf=0.039101135
															108:leaf=0.00496474048
													94:[f4<746962] yes=101,no=102,missing=101
														101:leaf=0.0421933644
														102:leaf=-0.0584634654
												90:[f4<664720.5] yes=95,no=96,missing=95
													95:leaf=0.0295421761
													96:[f4<803944] yes=103,no=104,missing=103
														103:leaf=-0.099301748
														104:[f4<887934.5] yes=109,no=110,missing=109
															109:leaf=0.0710984096
															110:[f3<1902.06494] yes=117,no=118,missing=117
																117:[f4<965741.5] yes=127,no=128,missing=127
																	127:leaf=0.0414588265
																	128:leaf=-0.0378885753
																118:leaf=-0.104486004
							22:[f3<1569.16504] yes=33,no=34,missing=33
								33:[f3<1549.82495] yes=49,no=50,missing=49
									49:[f5<143.820007] yes=67,no=68,missing=67
										67:[f2<51.2750015] yes=81,no=82,missing=81
											81:leaf=-0.00639091758
											82:leaf=-0.0933326185
										68:leaf=0.0242653731
									50:leaf=0.0939387083
								34:[f5<145.535004] yes=51,no=52,missing=51
									51:leaf=-0.0153840976
									52:leaf=-0.094359301
					14:[f4<2544019.5] yes=17,no=18,missing=17
						17:[f3<1404.83008] yes=23,no=24,missing=23
							23:leaf=-0.0741093606
							24:leaf=-0.0191726889
						18:[f2<51.5550003] yes=25,no=26,missing=25
							25:[f4<2594867.5] yes=35,no=36,missing=35
								35:leaf=0.0135159073
								36:leaf=-0.0971213952
							26:[f3<1290.67505] yes=37,no=38,missing=37
								37:leaf=-0.0616542101
								38:[f6<3.63499999] yes=53,no=54,missing=53
									53:leaf=0.00520469015
									54:leaf=0.075785093
				10:leaf=0.0804280043
			6:[f2<53.0999985] yes=11,no=12,missing=11
				11:leaf=0.0232501067
				12:leaf=-0.0765331089
		4:[f3<1730.05493] yes=7,no=8,missing=7
			7:leaf=-0.00988961942
			8:leaf=-0.0773660988
	2:leaf=0.0915201232
booster[10]
0:[f3<1968.98999] yes=1,no=2,missing=1
	1:[f5<169.565002] yes=3,no=4,missing=3
		3:[f4<2726177.5] yes=5,no=6,missing=5
			5:[f5<141.170013] yes=9,no=10,missing=9
				9:[f5<139.735001] yes=13,no=14,missing=13
					13:[f4<1957494] yes=17,no=18,missing=17
						17:[f5<121.065002] yes=25,no=26,missing=25
							25:[f5<120.470001] yes=35,no=36,missing=35
								35:leaf=0.0219674986
								36:leaf=-0.0326312706
							26:leaf=0.0927166045
						18:[f5<138.149994] yes=27,no=28,missing=27
							27:[f3<1288.33008] yes=37,no=38,missing=37
								37:[f2<56.9950027] yes=51,no=52,missing=51
									51:[f2<55.0950012] yes=69,no=70,missing=69
										69:leaf=0.0430899821
										70:[f2<56.4250031] yes=89,no=90,missing=89
											89:leaf=-0.0302217137
											90:leaf=-0.094033055
									52:[f2<57.8000031] yes=71,no=72,missing=71
										71:leaf=0.069020547
										72:leaf=-0.0231521875
								38:[f3<1293.85999] yes=53,no=54,missing=53
									53:leaf=0.0886932239
									54:[f3<1327.20996] yes=73,no=74,missing=73
										73:[f4<2574903] yes=91,no=92,missing=91
											91:[f4<2168427.5] yes=103,no=104,missing=103
												103:leaf=0.0343240201
												104:[f2<56.4800034] yes=117,no=118,missing=117
													117:leaf=-0.108580925
													118:[f3<1303.90503] yes=127,no=128,missing=127
														127:leaf=0.0526958704
														128:leaf=-0.0590443015
											92:leaf=0.0499461368
										74:[f3<1419.37] yes=93,no=94,missing=93
											93:[f2<54.5849991] yes=105,no=106,missing=105
												105:[f2<53.1599998] yes=119,no=120,missing=119
													119:leaf=0.075579457
													120:leaf=0.00102520257
												106:leaf=0.105040684
											94:[f3<1456.08997] yes=107,no=108,missing=107
												107:leaf=-0.0674035996
												108:[f3<1481.20508] yes=121,no=122,missing=121
													121:leaf=0.0753610358
													122:[f3<1504.98511] yes=129,no=130,missing=129
														129:leaf=-0.0496798418
														130:leaf=0.0388364084
							28:[f2<53.1049995] yes=39,no=40,missing=39
								39:[f3<1490.95996] yes=55,no=56,missing=55
									55:leaf=-0.0639594197
									56:leaf=0.0868922472
								40:[f4<2267367.5] yes=57,no=58,missing=57
									57:leaf=-0.106066383
									58:leaf=-0.00698267063
					14:[f4<2517242] yes=19,no=20,missing=19
						19:leaf=0.101642728
						20:leaf=0.0240093973
				10:[f4<876052] yes=15,no=16,missing=15
					15:[f3<1602.75] yes=21,no=22,missing=21
						21:leaf=-0.054991629
						22:[f4<814526] yes=29,no=30,missing=29
							29:[f4<782013.5] yes=41,no=42,missing=41
								41:[f0<6618636] yes=59,no=60,missing=59
									59:[f3<1806.21997] yes=75,no=76,missing=75
										75:[f0<2961098] yes=95,no=96,missing=95
											95:[f4<190670] yes=109,no=110,missing=109
												109:[f0<1045970] yes=123,no=124,missing=123
													123:[f4<103137] yes=131,no=132,missing=131
														131:leaf=-0.0127442097
														132:leaf=0.068806313
													124:leaf=-0.0495222248
												110:[f4<311442.5] yes=125,no=126,missing=125
													125:leaf=0.0892297328
													126:[f2<39.6350021] yes=133,no=134,missing=133
														133:[f3<1728.98499] yes=135,no=136,missing=135
															135:leaf=-0.0729731843
															136:leaf=0.0184948221
														134:[f0<2260602.5] yes=137,no=138,missing=137
															137:leaf=0.000180316376
															138:leaf=0.0894410387
											96:leaf=-0.0567636304
										76:[f5<164.300003] yes=97,no=98,missing=97
											97:[f3<1950.2749] yes=111,no=112,missing=111
												111:leaf=-0.0235912949
												112:leaf=0.0124383746
											98:leaf=0.105802253
									60:[f5<158.005005] yes=77,no=78,missing=77
										77:[f0<24629272] yes=99,no=100,missing=99
											99:[f2<46.3949966] yes=113,no=114,missing=113
												113:leaf=0.00173334742
												114:leaf=0.0935821384
											100:leaf=-0.0264543351
										78:[f3<1883.09998] yes=101,no=102,missing=101
											101:leaf=-0.0909453481
											102:[f3<1904.93506] yes=115,no=116,missing=115
												115:leaf=0.0207433105
												116:leaf=-0.0616249554
								42:leaf=-0.0598676801
							30:[f4<856547] yes=43,no=44,missing=43
								43:leaf=0.0983384848
								44:leaf=0.00558126578
					16:[f3<1575.14001] yes=23,no=24,missing=23
						23:[f0<3.5] yes=31,no=32,missing=31
							31:[f5<143.824997] yes=45,no=46,missing=45
								45:[f3<1504.41504] yes=61,no=62,missing=61
									61:[f5<142.604996] yes=79,no=80,missing=79
										79:leaf=0.0245672856
										80:leaf=-0.0520319045
									62:leaf=-0.0939631835
								46:[f4<2431582.5] yes=63,no=64,missing=63
									63:[f2<50.7299995] yes=81,no=82,missing=81
										81:leaf=0.0046941149
										82:leaf=0.0908756927
									64:[f3<1510.35999] yes=83,no=84,missing=83
										83:leaf=0.0229248833
										84:leaf=-0.0280001815
							32:leaf=0.078236565
						24:[f2<42.8499985] yes=33,no=34,missing=33
							33:[f2<39.8600006] yes=47,no=48,missing=47
								47:leaf=-0.0901472121
								48:[f5<160.690002] yes=65,no=66,missing=65
									65:leaf=0.0926157311
									66:leaf=-0.0141120479
							34:[f0<18339478] yes=49,no=50,missing=49
								49:[f3<1638.91504] yes=67,no=68,missing=67
									67:[f2<50.0400009] yes=85,no=86,missing=85
										85:leaf=0.0254284386
										86:leaf=-0.0508025289
									68:[f2<45.5449982] yes=87,no=88,missing=87
										87:leaf=-0.0271397233
										88:leaf=-0.105847113
								50:leaf=0.00240138057
			6:[f2<53.0999985] yes=11,no=12,missing=11
				11:leaf=0.00525801908
				12:leaf=-0.0764156282
		4:[f2<36.2249985] yes=7,no=8,missing=7
			7:leaf=-0.00879995432
			8:leaf=-0.0749997422
	2:leaf=0.0881228074
booster[11]
0:[f3<1968.98999] yes=1,no=2,missing=1
	1:[f5<169.565002] yes=3,no=4,missing=3
		3:[f4<2716820] yes=5,no=6,missing=5
			5:[f4<2648852.5] yes=9,no=10,missing=9
				9:[f4<2512914.5] yes=13,no=14,missing=13
					13:[f5<141.170013] yes=17,no=18,missing=17
						17:[f2<55.5400009] yes=21,no=22,missing=21
							21:[f5<139.735001] yes=29,no=30,missing=29
								29:[f2<54.2600021] yes=41,no=42,missing=41
									41:[f2<54.1849976] yes=55,no=56,missing=55
										55:[f4<1949302.5] yes=71,no=72,missing=71
											71:[f3<1311.63501] yes=83,no=84,missing=83
												83:leaf=0.011955604
												84:leaf=0.0937567949
											72:[f5<134.955002] yes=85,no=86,missing=85
												85:[f2<53.1599998] yes=93,no=94,missing=93
													93:[f3<1331.65503] yes=103,no=104,missing=103
														103:leaf=0.0130423261
														104:leaf=0.0833581463
													94:[f2<53.9950027] yes=105,no=106,missing=105
														105:leaf=-0.0363256223
														106:leaf=0.0390528813
												86:[f3<1490.19995] yes=95,no=96,missing=95
													95:[f4<2219745] yes=107,no=108,missing=107
														107:leaf=-0.0845189542
														108:[f4<2412388] yes=119,no=120,missing=119
															119:leaf=0.0432413556
															120:leaf=-0.0512361526
													96:[f2<52.6500015] yes=109,no=110,missing=109
														109:leaf=0.0730441809
														110:leaf=0.00264666462
										56:leaf=-0.0594683886
									42:leaf=0.0789598227
								30:leaf=0.0975552872
							22:[f5<121.134995] yes=31,no=32,missing=31
								31:leaf=-0.0836315751
								32:[f2<56.2150002] yes=43,no=44,missing=43
									43:leaf=-0.0672369525
									44:[f2<58.0849991] yes=57,no=58,missing=57
										57:[f5<123.925003] yes=73,no=74,missing=73
											73:leaf=0.107328884
											74:[f4<2342655.5] yes=87,no=88,missing=87
												87:leaf=-0.0210502855
												88:leaf=0.028300738
										58:leaf=-0.0405111648
						18:[f4<1934661.5] yes=23,no=24,missing=23
							23:[f5<156.290009] yes=33,no=34,missing=33
								33:[f0<22209520] yes=45,no=46,missing=45
									45:[f5<144.669998] yes=59,no=60,missing=59
										59:leaf=-0.0142549518
										60:[f3<1856.02502] yes=75,no=76,missing=75
											75:leaf=0.108970545
											76:leaf=0.024424037
									46:[f2<52.5950012] yes=61,no=62,missing=61
										61:leaf=-0.0594249777
										62:leaf=0.0412938073
								34:[f3<1602.75] yes=47,no=48,missing=47
									47:leaf=-0.0829332471
									48:[f4<555722] yes=63,no=64,missing=63
										63:[f4<510756.5] yes=77,no=78,missing=77
											77:[f0<1965211.5] yes=89,no=90,missing=89
												89:[f4<201751] yes=97,no=98,missing=97
													97:[f2<31.7649994] yes=111,no=112,missing=111
														111:leaf=0.0629903376
														112:[f2<35.2350006] yes=121,no=122,missing=121
															121:[f0<1127147.5] yes=129,no=130,missing=129
																129:leaf=-0.0708738938
																130:leaf=-0.0156417545
															122:leaf=0.0309185088
													98:[f4<311442.5] yes=113,no=114,missing=113
														113:leaf=0.0935330316
														114:leaf=0.00707622198
												90:leaf=-0.0331218801
											78:leaf=0.0968700275
										64:[f2<48.2900009] yes=79,no=80,missing=79
											79:[f2<45.5449982] yes=91,no=92,missing=91
												91:[f3<1869.53003] yes=99,no=100,missing=99
													99:[f4<710388.5] yes=115,no=116,missing=115
														115:[f4<632741] yes=123,no=124,missing=123
															123:leaf=0.0376125611
															124:leaf=-0.0639949068
														116:leaf=0.0947165191
													100:[f5<164.434998] yes=117,no=118,missing=117
														117:[f5<161.449997] yes=125,no=126,missing=125
															125:[f3<1883.90002] yes=131,no=132,missing=131
																131:leaf=-0.0886246338
																132:[f0<8140148.5] yes=135,no=136,missing=135
																	135:leaf=0.092980139
																	136:[f5<158.639999] yes=137,no=138,missing=137
																		137:leaf=0.0849258527
																		138:leaf=-0.0360405892
															126:[f2<41.7900009] yes=133,no=134,missing=133
																133:leaf=-0.0130578401
																134:leaf=-0.108591251
														118:[f3<1935.69507] yes=127,no=128,missing=127
															127:leaf=-0.00428397628
															128:leaf=0.0889995024
												92:[f3<1863.76501] yes=101,no=102,missing=101
													101:leaf=-0.0813896284
													102:leaf=-0.0205946676
											80:leaf=0.0632249117
							24:[f3<1569.16504] yes=35,no=36,missing=35
								35:[f3<1549.82495] yes=49,no=50,missing=49
									49:[f5<143.820007] yes=65,no=66,missing=65
										65:[f2<51.2750015] yes=81,no=82,missing=81
											81:leaf=-0.00384019385
											82:leaf=-0.0875601396
										66:leaf=0.0200791229
									50:leaf=0.0864819065
								36:[f2<51.7450027] yes=51,no=52,missing=51
									51:[f4<2109828] yes=67,no=68,missing=67
										67:leaf=-0.0288118869
										68:leaf=-0.100666724
									52:leaf=-1.57162231e-06
					14:[f2<51.5550003] yes=19,no=20,missing=19
						19:[f2<51.2249985] yes=25,no=26,missing=25
							25:leaf=-0.00772262365
							26:leaf=-0.0948205963
						20:[f2<53.5750008] yes=27,no=28,missing=27
							27:[f5<140.520004] yes=37,no=38,missing=37
								37:leaf=0.0890168175
								38:leaf=-0.00315279188
							28:[f4<2608148.5] yes=39,no=40,missing=39
								39:[f4<2532672.5] yes=53,no=54,missing=53
									53:leaf=-0.00733017921
									54:[f2<56.6200027] yes=69,no=70,missing=69
										69:leaf=-0.0726171136
										70:leaf=-0.0160736274
								40:leaf=0.0505979955
				10:[f4<2674660.5] yes=15,no=16,missing=15
					15:leaf=0.0874174461
					16:leaf=0.0247921646
			6:[f2<53.0999985] yes=11,no=12,missing=11
				11:leaf=0.0214325804
				12:leaf=-0.0823524594
		4:[f0<949761] yes=7,no=8,missing=7
			7:leaf=-0.00765545014
			8:leaf=-0.0729096457
	2:leaf=0.0849725902
booster[12]
0:[f3<1968.98999] yes=1,no=2,missing=1
	1:[f5<169.565002] yes=3,no=4,missing=3
		3:[f4<2726177.5] yes=5,no=6,missing=5
			5:[f4<2648852.5] yes=7,no=8,missing=7
				7:[f4<2512914.5] yes=11,no=12,missing=11
					11:[f5<141.170013] yes=15,no=16,missing=15
						15:[f2<55.5400009] yes=21,no=22,missing=21
							21:[f5<139.735001] yes=29,no=30,missing=29
								29:[f5<138.149994] yes=41,no=42,missing=41
									41:[f2<53.9000015] yes=53,no=54,missing=53
										53:[f4<2364922.5] yes=71,no=72,missing=71
											71:[f5<128.934998] yes=89,no=90,missing=89
												89:leaf=-0.0228755306
												90:[f4<2080483.5] yes=107,no=108,missing=107
													107:leaf=0.00209214725
													108:leaf=0.0913038328
											72:leaf=-0.0287509896
										54:[f5<121.850006] yes=73,no=74,missing=73
											73:[f5<120.994995] yes=91,no=92,missing=91
												91:leaf=0.0879353955
												92:leaf=-0.0345865712
											74:leaf=0.107414342
									42:[f3<1474.22998] yes=55,no=56,missing=55
										55:leaf=-0.0763997883
										56:[f2<53.1049995] yes=75,no=76,missing=75
											75:leaf=0.0888169929
											76:leaf=-0.0267857462
								30:leaf=0.0938085467
							22:[f5<121.134995] yes=31,no=32,missing=31
								31:leaf=-0.0804623216
								32:[f2<56.2150002] yes=43,no=44,missing=43
									43:leaf=-0.0629108176
									44:[f3<1278.46497] yes=57,no=58,missing=57
										57:leaf=-0.0336078964
										58:[f5<123.925003] yes=77,no=78,missing=77
											77:[f2<57.5100021] yes=93,no=94,missing=93
												93:leaf=0.106029764
												94:leaf=0.0268023312
											78:[f4<2342655.5] yes=95,no=96,missing=95
												95:leaf=-0.0196762979
												96:leaf=0.0454411209
						16:[f4<1934661.5] yes=23,no=24,missing=23
							23:[f2<39.6350021] yes=33,no=34,missing=33
								33:[f2<39.2449989] yes=45,no=46,missing=45
									45:[f4<643920] yes=59,no=60,missing=59
										59:[f5<163.375] yes=79,no=80,missing=79
											79:leaf=0.0763022229
											80:[f5<165.029999] yes=97,no=98,missing=97
												97:[f3<1721.15503] yes=109,no=110,missing=109
													109:leaf=-0.0659916028
													110:leaf=-0.00954982545
												98:[f3<1701.245] yes=111,no=112,missing=111
													111:[f2<35.2249985] yes=117,no=118,missing=117
														117:leaf=-0.0755328164
														118:leaf=0.0527302697
													112:[f3<1716.17004] yes=119,no=120,missing=119
														119:leaf=0.107364729
														120:leaf=-0.00432068994
										60:[f2<38.1299973] yes=81,no=82,missing=81
											81:leaf=-0.00574441021
											82:leaf=-0.0620540455
									46:leaf=-0.0934748352
								34:[f0<4710756.5] yes=47,no=48,missing=47
									47:[f2<40.2700005] yes=61,no=62,missing=61
										61:leaf=0.0988641307
										62:[f2<41.5800018] yes=83,no=84,missing=83
											83:[f4<597724] yes=99,no=100,missing=99
												99:leaf=-0.0497804843
												100:leaf=0.00691054109
											84:[f2<50.4449997] yes=101,no=102,missing=101
												101:leaf=0.0897452459
												102:leaf=0.00193439273
									48:[f0<5545825.5] yes=63,no=64,missing=63
										63:leaf=-0.0584338419
										64:[f3<1881.41504] yes=85,no=86,missing=85
											85:[f3<1875.26001] yes=103,no=104,missing=103
												103:[f3<1864.07007] yes=113,no=114,missing=113
													113:[f2<45.6900024] yes=121,no=122,missing=121
														121:leaf=0.052604463
														122:[f2<52.5950012] yes=127,no=128,missing=127
															127:[f0<14703519] yes=131,no=132,missing=131
																131:leaf=-0.00579260895
																132:[f2<47.6549988] yes=133,no=134,missing=133
																	133:leaf=-0.0811936036
																	134:leaf=-0.0235925317
															128:leaf=0.0181600861
													114:leaf=0.0752485916
												104:leaf=-0.106817462
											86:[f2<43.5400009] yes=105,no=106,missing=105
												105:[f2<42.1200027] yes=115,no=116,missing=115
													115:[f4<783817.5] yes=123,no=124,missing=123
														123:[f2<40.6800003] yes=129,no=130,missing=129
															129:leaf=0.0585238896
															130:leaf=-0.0327912308
														124:leaf=0.071112752
													116:[f5<161.61499] yes=125,no=126,missing=125
														125:leaf=0.0455918871
														126:leaf=-0.0910100862
												106:leaf=0.0801688656
							24:[f3<1615.63] yes=35,no=36,missing=35
								35:[f0<9] yes=49,no=50,missing=49
									49:[f5<145.074997] yes=65,no=66,missing=65
										65:[f4<2111026] yes=87,no=88,missing=87
											87:leaf=0.0107116615
											88:leaf=-0.0822328851
										66:leaf=0.0140926493
									50:[f2<50.9400024] yes=67,no=68,missing=67
										67:leaf=0.0619511902
										68:leaf=0.00312742195
								36:leaf=-0.089345865
					12:[f2<51.5550003] yes=17,no=18,missing=17
						17:[f4<2594867.5] yes=25,no=26,missing=25
							25:leaf=-0.0045495457
							26:leaf=-0.0921780616
						18:[f2<53.5750008] yes=27,no=28,missing=27
							27:[f5<140.520004] yes=37,no=38,missing=37
								37:leaf=0.0854456276
								38:leaf=-0.00296672317
							28:[f4<2608148.5] yes=39,no=40,missing=39
								39:[f4<2532672.5] yes=51,no=52,missing=51
									51:leaf=-0.00689751888
									52:[f5<124.345001] yes=69,no=70,missing=69
										69:leaf=-0.0149004553
										70:leaf=-0.0682649538
								40:leaf=0.0481387042
				8:[f2<52.2249985] yes=13,no=14,missing=13
					13:leaf=0.0940740183
					14:[f2<54.2600021] yes=19,no=20,missing=19
						19:leaf=-0.027874345
						20:leaf=0.0442663543
			6:[f2<53.0999985] yes=9,no=10,missing=9
				9:leaf=0.00380287948
				10:leaf=-0.0709350258
		4:leaf=-0.048649516
	2:leaf=0.0820342228
booster[13]
0:[f3<1968.98999] yes=1,no=2,missing=1
	1:[f5<169.565002] yes=3,no=4,missing=3
		3:[f4<2709604] yes=5,no=6,missing=5
			5:[f4<2648852.5] yes=7,no=8,missing=7
				7:[f3<1281.15503] yes=11,no=12,missing=11
					11:[f5<123.164993] yes=13,no=14,missing=13
						13:leaf=0.0539071858
						14:leaf=-0.0817950368
					12:[f2<51.7450027] yes=15,no=16,missing=15
						15:[f4<2336528] yes=17,no=18,missing=17
							17:[f4<2225389] yes=21,no=22,missing=21
								21:[f4<2099749.5] yes=29,no=30,missing=29
									29:[f2<48.2900009] yes=39,no=40,missing=39
										39:[f0<15331235] yes=53,no=54,missing=53
											53:[f2<39.6350021] yes=65,no=66,missing=65
												65:[f2<39.2449989] yes=73,no=74,missing=73
													73:[f4<643920] yes=81,no=82,missing=81
														81:[f5<163.375] yes=89,no=90,missing=89
															89:leaf=0.0719178542
															90:[f5<165.029999] yes=101,no=102,missing=101
																101:[f3<1721.15503] yes=113,no=114,missing=113
																	113:leaf=-0.0627074316
																	114:leaf=-0.00899320748
																102:[f3<1701.245] yes=115,no=116,missing=115
																	115:[f2<35.2249985] yes=127,no=128,missing=127
																		127:leaf=-0.0714717209
																		128:leaf=0.0500931628
																	116:[f3<1716.17004] yes=129,no=130,missing=129
																		129:leaf=0.102061525
																		130:leaf=-0.00409619045
														82:[f2<38.1299973] yes=91,no=92,missing=91
															91:leaf=-0.00541780517
															92:leaf=-0.0588807873
													74:leaf=-0.089406617
												66:[f3<1870.77502] yes=75,no=76,missing=75
													75:[f3<1807.57495] yes=83,no=84,missing=83
														83:[f3<1791.32495] yes=93,no=94,missing=93
															93:[f2<40.2700005] yes=103,no=104,missing=103
																103:leaf=0.0943843275
																104:[f0<2260602.5] yes=117,no=118,missing=117
																	117:leaf=-0.0398735106
																	118:leaf=0.0690478235
															94:leaf=-0.0602205209
														84:[f3<1839.96997] yes=95,no=96,missing=95
															95:leaf=0.0960611925
															96:leaf=0.0252828207
													76:[f3<1880.92993] yes=85,no=86,missing=85
														85:leaf=-0.0671601444
														86:[f5<161.570007] yes=97,no=98,missing=97
															97:[f0<8140148.5] yes=105,no=106,missing=105
																105:leaf=0.0873124897
																106:[f5<159.36499] yes=119,no=120,missing=119
																	119:leaf=0.0474175811
																	120:leaf=-0.0304546393
															98:[f5<163.220001] yes=107,no=108,missing=107
																107:leaf=-0.0747164935
																108:[f4<743202] yes=121,no=122,missing=121
																	121:[f4<588733.5] yes=131,no=132,missing=131
																		131:leaf=-0.0105590289
																		132:leaf=0.0944367647
																	122:[f3<1942.45996] yes=133,no=134,missing=133
																		133:leaf=0.00467225723
																		134:leaf=-0.0434328131
											54:[f4<770898] yes=67,no=68,missing=67
												67:leaf=-0.0130072972
												68:leaf=-0.0551094115
										40:[f2<51.2050018] yes=55,no=56,missing=55
											55:[f3<1579.39502] yes=69,no=70,missing=69
												69:leaf=0.0888270587
												70:[f5<156.350006] yes=77,no=78,missing=77
													77:leaf=-0.0351647474
													78:leaf=0.0793944001
											56:leaf=-0.044770617
									30:[f3<1561.67993] yes=41,no=42,missing=41
										41:leaf=-0.0138940904
										42:leaf=-0.0772535801
								22:leaf=0.068762444
							18:[f2<51.5349998] yes=23,no=24,missing=23
								23:[f2<50.9199982] yes=31,no=32,missing=31
									31:[f2<50.4300003] yes=43,no=44,missing=43
										43:leaf=-0.063799195
										44:leaf=0.0211886149
									32:leaf=-0.0916463137
								24:leaf=0.0197839495
						16:[f5<121.080002] yes=19,no=20,missing=19
							19:[f2<55.9449997] yes=25,no=26,missing=25
								25:[f5<120.345001] yes=33,no=34,missing=33
									33:leaf=0.0799391046
									34:[f3<1309.19507] yes=45,no=46,missing=45
										45:leaf=-0.0644768178
										46:leaf=0.0389649644
								26:leaf=-0.0820355713
							20:[f3<1514.75] yes=27,no=28,missing=27
								27:[f3<1284.68005] yes=35,no=36,missing=35
									35:leaf=-0.0196234826
									36:[f3<1297.89001] yes=47,no=48,missing=47
										47:[f2<57.375] yes=57,no=58,missing=57
											57:leaf=0.106877111
											58:leaf=0.0258248188
										48:[f3<1500.39502] yes=59,no=60,missing=59
											59:[f4<1987002] yes=71,no=72,missing=71
												71:leaf=0.0665023848
												72:[f4<2065578] yes=79,no=80,missing=79
													79:leaf=-0.060813453
													80:[f2<52.3699989] yes=87,no=88,missing=87
														87:leaf=0.0825780109
														88:[f4<2505644.5] yes=99,no=100,missing=99
															99:[f4<2276008] yes=109,no=110,missing=109
																109:[f3<1437.32007] yes=123,no=124,missing=123
																	123:leaf=0.0297505558
																	124:leaf=-0.0477977805
																110:[f3<1309.90503] yes=125,no=126,missing=125
																	125:leaf=-0.0219348427
																	126:leaf=0.0756257251
															100:[f4<2560609] yes=111,no=112,missing=111
																111:leaf=-0.0545648113
																112:leaf=0.0356329605
											60:leaf=0.0964234769
								28:[f4<2017366] yes=37,no=38,missing=37
									37:[f3<1843.53003] yes=49,no=50,missing=49
										49:leaf=0.0692092404
										50:[f3<1848.33008] yes=61,no=62,missing=61
											61:leaf=-0.0659726039
											62:leaf=0.0370095186
									38:[f0<0.5] yes=51,no=52,missing=51
										51:[f5<138.042511] yes=63,no=64,missing=63
											63:leaf=-0.00177321851
											64:leaf=-0.0643025562
										52:leaf=0.0338326171
				8:leaf=0.0682404861
			6:[f2<53.0999985] yes=9,no=10,missing=9
				9:leaf=0.0191371161
				10:leaf=-0.0676098689
		4:leaf=-0.0457406454
	2:leaf=0.0792792663
booster[14]
0:[f3<1968.98999] yes=1,no=2,missing=1
	1:[f5<169.565002] yes=3,no=4,missing=3
		3:[f4<2726177.5] yes=5,no=6,missing=5
			5:[f5<121.080002] yes=7,no=8,missing=7
				7:[f2<55.9449997] yes=11,no=12,missing=11
					11:[f5<120.345001] yes=15,no=16,missing=15
						15:leaf=0.0769460574
						16:[f3<1309.19507] yes=21,no=22,missing=21
							21:leaf=-0.0604553632
							22:leaf=0.0372024365
					12:leaf=-0.079063952
				8:[f5<122.964996] yes=13,no=14,missing=13
					13:[f4<2451967] yes=17,no=18,missing=17
						17:[f3<1309.73499] yes=23,no=24,missing=23
							23:leaf=0.107124589
							24:[f5<121.82] yes=29,no=30,missing=29
								29:leaf=-0.00671360642
								30:leaf=0.0363948792
						18:leaf=-0.000429442007
					14:[f3<1284.68005] yes=19,no=20,missing=19
						19:[f5<123.779999] yes=25,no=26,missing=25
							25:leaf=0.0108604375
							26:leaf=-0.0831903145
						20:[f2<52.5500031] yes=27,no=28,missing=27
							27:[f2<52.3450012] yes=31,no=32,missing=31
								31:[f4<2648852.5] yes=35,no=36,missing=35
									35:[f4<2336528] yes=41,no=42,missing=41
										41:[f5<156.290009] yes=47,no=48,missing=47
											47:[f5<152.459991] yes=55,no=56,missing=55
												55:[f3<1575.14001] yes=67,no=68,missing=67
													67:[f3<1493.745] yes=81,no=82,missing=81
														81:[f3<1485.27502] yes=93,no=94,missing=93
															93:leaf=0.051278688
															94:leaf=-0.0471672267
														82:[f2<50.8499985] yes=95,no=96,missing=95
															95:leaf=0.0824612081
															96:[f2<51.4749985] yes=103,no=104,missing=103
																103:leaf=-0.0191302672
																104:leaf=0.0653108284
													68:[f2<51.7450027] yes=83,no=84,missing=83
														83:leaf=-0.058243759
														84:leaf=-0.0134789273
												56:leaf=0.0839230567
											48:[f3<1602.75] yes=57,no=58,missing=57
												57:leaf=-0.0774942636
												58:[f4<876052] yes=69,no=70,missing=69
													69:[f4<814526] yes=85,no=86,missing=85
														85:[f0<6618636] yes=97,no=98,missing=97
															97:[f3<1806.21997] yes=105,no=106,missing=105
																105:[f0<2961098] yes=111,no=112,missing=111
																	111:[f5<161.070007] yes=119,no=120,missing=119
																		119:leaf=-0.0192462709
																		120:[f4<201751] yes=125,no=126,missing=125
																			125:[f0<1204040.5] yes=127,no=128,missing=127
																				127:[f5<168.139999] yes=131,no=132,missing=131
																					131:[f4<142340.5] yes=135,no=136,missing=135
																						135:[f2<35.5100021] yes=139,no=140,missing=139
																							139:leaf=0.0738296807
																							140:leaf=0.0135172633
																						136:leaf=-0.00287886849
																					132:leaf=-0.0227274504
																				128:leaf=-0.0511427298
																			126:[f4<298733.5] yes=129,no=130,missing=129
																				129:leaf=0.0846264288
																				130:[f2<40.5800018] yes=133,no=134,missing=133
																					133:[f5<162.410004] yes=137,no=138,missing=137
																						137:leaf=0.0345132798
																						138:leaf=-0.0372625142
																					134:leaf=0.0733149871
																	112:leaf=-0.0515576415
																106:[f5<164.300003] yes=113,no=114,missing=113
																	113:[f3<1946.46497] yes=121,no=122,missing=121
																		121:leaf=-0.0544767939
																		122:leaf=0.0252146032
																	114:leaf=0.0923245549
															98:[f5<158.005005] yes=107,no=108,missing=107
																107:leaf=0.032248199
																108:[f3<1880.92993] yes=115,no=116,missing=115
																	115:leaf=-0.0860848054
																	116:[f3<1907.46997] yes=123,no=124,missing=123
																		123:leaf=0.0417111032
																		124:leaf=-0.0878924653
														86:[f4<856547] yes=99,no=100,missing=99
															99:leaf=0.0871546268
															100:leaf=0.00698643876
													70:[f3<1902.06494] yes=87,no=88,missing=87
														87:[f3<1885.1499] yes=101,no=102,missing=101
															101:[f5<158.924988] yes=109,no=110,missing=109
																109:[f4<1091359] yes=117,no=118,missing=117
																	117:leaf=-0.0832845718
																	118:leaf=-0.00158037059
																110:leaf=0.0180901941
															102:leaf=0.0739017576
														88:leaf=-0.061514806
										42:[f2<51.5349998] yes=49,no=50,missing=49
											49:[f4<2541849.5] yes=59,no=60,missing=59
												59:leaf=-0.086878933
												60:[f4<2594867.5] yes=71,no=72,missing=71
													71:leaf=0.0337925106
													72:leaf=-0.0854440108
											50:[f3<1511.58997] yes=61,no=62,missing=61
												61:[f3<1489.79004] yes=73,no=74,missing=73
													73:leaf=0.0170002673
													74:leaf=0.0830213875
												62:leaf=-0.0550976582
									36:leaf=0.0875289515
								32:leaf=-0.0715204552
							28:[f3<1298.69507] yes=33,no=34,missing=33
								33:[f5<123.949997] yes=37,no=38,missing=37
									37:leaf=0.0172031615
									38:leaf=0.0905339047
								34:[f7<21222.5957] yes=39,no=40,missing=39
									39:[f4<2487280] yes=43,no=44,missing=43
										43:leaf=0.00139933114
										44:leaf=-0.0450815819
									40:[f4<1944385] yes=45,no=46,missing=45
										45:[f0<23102752] yes=51,no=52,missing=51
											51:leaf=0.0861117989
											52:leaf=0.0199089516
										46:[f4<2260430.5] yes=53,no=54,missing=53
											53:[f5<138.149994] yes=63,no=64,missing=63
												63:[f4<2080651.5] yes=75,no=76,missing=75
													75:leaf=-0.00175618182
													76:leaf=0.0348955207
												64:[f2<53.3400002] yes=77,no=78,missing=77
													77:leaf=-0.00693639321
													78:leaf=-0.0802493244
											54:[f3<1415.16504] yes=65,no=66,missing=65
												65:leaf=-0.00257650553
												66:[f2<54.0299988] yes=79,no=80,missing=79
													79:[f4<2492826] yes=89,no=90,missing=89
														89:leaf=0.101252399
														90:leaf=0.0176359601
													80:[f5<136.744995] yes=91,no=92,missing=91
														91:leaf=0.0432476439
														92:leaf=-0.00922869146
			6:[f2<53.0999985] yes=9,no=10,missing=9
				9:leaf=0.00255230768
				10:leaf=-0.066397436
		4:leaf=-0.043020159
	2:leaf=0.0766845644
booster[15]
0:[f3<1968.98999] yes=1,no=2,missing=1
	1:[f5<169.565002] yes=3,no=4,missing=3
		3:[f4<2716820] yes=5,no=6,missing=5
			5:[f4<2648852.5] yes=7,no=8,missing=7
				7:[f4<2602538.5] yes=11,no=12,missing=11
					11:[f4<2571268.5] yes=15,no=16,missing=15
						15:[f4<2512914.5] yes=19,no=20,missing=19
							19:[f5<141.170013] yes=23,no=24,missing=23
								23:[f5<139.494995] yes=27,no=28,missing=27
									27:[f5<138.149994] yes=35,no=36,missing=35
										35:[f2<55.5400009] yes=43,no=44,missing=43
											43:[f2<53.9000015] yes=55,no=56,missing=55
												55:[f2<53.2399979] yes=71,no=72,missing=71
													71:[f2<52.3050003] yes=91,no=92,missing=91
														91:leaf=-0.0207115468
														92:[f2<52.6749992] yes=105,no=106,missing=105
															105:leaf=0.0769910216
															106:leaf=0.00437244074
													72:leaf=-0.0304602664
												56:[f4<1840705.5] yes=73,no=74,missing=73
													73:[f4<1713808] yes=93,no=94,missing=93
														93:leaf=0.0437341519
														94:leaf=-0.0143148601
													74:leaf=0.0875959992
											44:[f4<2493429.5] yes=57,no=58,missing=57
												57:[f2<56.6549988] yes=75,no=76,missing=75
													75:[f4<2158292] yes=95,no=96,missing=95
														95:leaf=-0.0890718699
														96:[f4<2327926.5] yes=107,no=108,missing=107
															107:leaf=0.0251379143
															108:leaf=-0.0435162857
													76:[f4<2263552] yes=97,no=98,missing=97
														97:leaf=0.0729204938
														98:[f3<1290.18005] yes=109,no=110,missing=109
															109:leaf=-0.0842951462
															110:leaf=0.0288233403
												58:leaf=0.082791388
										36:[f3<1474.22998] yes=45,no=46,missing=45
											45:leaf=-0.063857846
											46:[f2<53.1049995] yes=59,no=60,missing=59
												59:leaf=0.0690524504
												60:leaf=-0.0350308679
									28:leaf=0.0812166482
								24:[f4<876052] yes=29,no=30,missing=29
									29:[f4<814526] yes=37,no=38,missing=37
										37:[f4<773579.5] yes=47,no=48,missing=47
											47:[f5<153.270004] yes=61,no=62,missing=61
												61:[f2<52.2200012] yes=77,no=78,missing=77
													77:leaf=0.0168649405
													78:leaf=0.0871188194
												62:[f0<6618636] yes=79,no=80,missing=79
													79:[f3<1806.21997] yes=99,no=100,missing=99
														99:[f0<2961098] yes=111,no=112,missing=111
															111:[f3<1621.66003] yes=119,no=120,missing=119
																119:leaf=-0.0359852277
																120:[f4<190670] yes=125,no=126,missing=125
																	125:[f0<1045970] yes=127,no=128,missing=127
																		127:[f4<103137] yes=131,no=132,missing=131
																			131:leaf=-0.0134037109
																			132:leaf=0.0754371732
																		128:leaf=-0.045469258
																	126:[f4<311442.5] yes=129,no=130,missing=129
																		129:leaf=0.0745662674
																		130:[f2<39.6350021] yes=133,no=134,missing=133
																			133:[f3<1728.98499] yes=135,no=136,missing=135
																				135:leaf=-0.0685781613
																				136:leaf=0.0198189151
																			134:[f0<2260602.5] yes=137,no=138,missing=137
																				137:leaf=-0.0030760339
																				138:leaf=0.0793095082
															112:leaf=-0.0489796102
														100:[f5<164.300003] yes=113,no=114,missing=113
															113:[f4<707626.5] yes=121,no=122,missing=121
																121:leaf=0.0101954853
																122:leaf=-0.0234894268
															114:leaf=0.0877180919
													80:[f5<158.005005] yes=101,no=102,missing=101
														101:[f3<1852.28003] yes=115,no=116,missing=115
															115:leaf=-0.0530941486
															116:leaf=0.0513172932
														102:[f4<674706.5] yes=117,no=118,missing=117
															117:[f4<622771.5] yes=123,no=124,missing=123
																123:leaf=-0.0590720065
																124:leaf=0.0301083215
															118:leaf=-0.0789575279
											48:leaf=-0.0495067351
										38:[f4<856547] yes=49,no=50,missing=49
											49:leaf=0.0867445469
											50:leaf=0.00661808578
									30:[f3<1575.14001] yes=39,no=40,missing=39
										39:[f0<3.5] yes=51,no=52,missing=51
											51:[f5<143.820007] yes=63,no=64,missing=63
												63:[f3<1495.5] yes=81,no=82,missing=81
													81:leaf=-0.00889446121
													82:leaf=-0.0896465182
												64:[f2<51.1399994] yes=83,no=84,missing=83
													83:leaf=-0.00347120129
													84:leaf=0.0746209547
											52:[f5<144.264999] yes=65,no=66,missing=65
												65:leaf=0.0831327736
												66:leaf=0.0238246545
										40:[f2<42.8499985] yes=53,no=54,missing=53
											53:[f2<39.8600006] yes=67,no=68,missing=67
												67:leaf=-0.0806450024
												68:[f5<160.690002] yes=85,no=86,missing=85
													85:leaf=0.0805239528
													86:leaf=-0.0131195039
											54:[f4<1096048.5] yes=69,no=70,missing=69
												69:[f3<1865.91504] yes=87,no=88,missing=87
													87:leaf=-0.0220998954
													88:leaf=-0.0950285047
												70:[f0<36.5] yes=89,no=90,missing=89
													89:[f5<145.720001] yes=103,no=104,missing=103
														103:leaf=-0.00870877691
														104:leaf=-0.0903559104
													90:leaf=0.0443391092
							20:[f3<1326.67004] yes=25,no=26,missing=25
								25:[f5<123.125] yes=31,no=32,missing=31
									31:leaf=-0.0137932124
									32:leaf=-0.0854214132
								26:[f5<132.425003] yes=33,no=34,missing=33
									33:leaf=0.0527978651
									34:[f2<51.9950027] yes=41,no=42,missing=41
										41:leaf=0.0130018583
										42:leaf=-0.0592884533
						16:leaf=0.0772454068
					12:[f3<1465.33008] yes=17,no=18,missing=17
						17:[f4<2622111.5] yes=21,no=22,missing=21
							21:leaf=0.00938366633
							22:leaf=0.0390368514
						18:leaf=-0.0975487754
				8:[f3<1421.22998] yes=13,no=14,missing=13
					13:leaf=0.0693829358
					14:leaf=0.00979887787
			6:[f2<53.0999985] yes=9,no=10,missing=9
				9:leaf=0.0171182435
				10:leaf=-0.0732309744
		4:leaf=-0.0404719077
	2:leaf=0.0742312372
booster[16]
0:[f3<1968.98999] yes=1,no=2,missing=1
	1:[f4<2726177.5] yes=3,no=4,missing=3
		3:[f5<168.139999] yes=5,no=6,missing=5
			5:[f2<32.3699989] yes=9,no=10,missing=9
				9:[f5<165.830002] yes=13,no=14,missing=13
					13:leaf=-0.0829872787
					14:leaf=0.0268950202
				10:[f2<35.1650009] yes=15,no=16,missing=15
					15:leaf=0.0664241761
					16:[f3<1569.16504] yes=19,no=20,missing=19
						19:[f3<1552.26001] yes=21,no=22,missing=21
							21:[f3<1540.91003] yes=25,no=26,missing=25
								25:[f5<121.080002] yes=33,no=34,missing=33
									33:[f2<55.9449997] yes=39,no=40,missing=39
										39:[f5<120.345001] yes=47,no=48,missing=47
											47:leaf=0.0725278184
											48:[f2<54.3050003] yes=55,no=56,missing=55
												55:leaf=-0.0630224869
												56:leaf=0.0303992424
										40:leaf=-0.0753257722
									34:[f3<1284.68005] yes=41,no=42,missing=41
										41:[f5<123.779999] yes=49,no=50,missing=49
											49:[f3<1275.79004] yes=57,no=58,missing=57
												57:leaf=-0.0182286929
												58:leaf=0.0699720532
											50:leaf=-0.0767637119
										42:[f3<1293.92004] yes=51,no=52,missing=51
											51:[f2<57.3050003] yes=59,no=60,missing=59
												59:leaf=0.0961027145
												60:leaf=0.0205475669
											52:[f3<1326.86499] yes=61,no=62,missing=61
												61:[f2<56.6699982] yes=67,no=68,missing=67
													67:[f4<2168427.5] yes=73,no=74,missing=73
														73:leaf=0.0342201628
														74:[f4<2494677] yes=83,no=84,missing=83
															83:leaf=-0.0948823616
															84:leaf=-0.0174013637
													68:[f2<57.2549973] yes=75,no=76,missing=75
														75:leaf=0.0780754238
														76:leaf=-0.032896474
												62:[f3<1419.37] yes=69,no=70,missing=69
													69:leaf=0.0628575161
													70:[f3<1445.64001] yes=77,no=78,missing=77
														77:leaf=-0.0644207746
														78:[f4<1960568] yes=85,no=86,missing=85
															85:[f2<51.1900024] yes=93,no=94,missing=93
																93:leaf=0.000447672472
																94:leaf=0.0813535675
															86:[f4<2060448] yes=95,no=96,missing=95
																95:leaf=-0.0556766875
																96:[f3<1500.19995] yes=105,no=106,missing=105
																	105:[f3<1496.43506] yes=117,no=118,missing=117
																		117:[f5<138.595001] yes=123,no=124,missing=123
																			123:[f4<2478271] yes=131,no=132,missing=131
																				131:leaf=0.0696994662
																				132:leaf=-0.0109888529
																			124:[f3<1472.47498] yes=133,no=134,missing=133
																				133:leaf=-0.0553453565
																				134:[f2<51.4400024] yes=135,no=136,missing=135
																					135:[f3<1488.86499] yes=137,no=138,missing=137
																						137:leaf=0.0308809634
																						138:leaf=-0.0345403515
																					136:leaf=0.0590145998
																		118:leaf=-0.0663198382
																	106:[f3<1514.75] yes=119,no=120,missing=119
																		119:[f5<144.86499] yes=125,no=126,missing=125
																			125:leaf=0.0938691795
																			126:leaf=0.021865882
																		120:[f3<1522.76501] yes=127,no=128,missing=127
																			127:leaf=-0.0578503087
																			128:leaf=0.032073617
								26:leaf=-0.0790550858
							22:[f2<54.1749992] yes=27,no=28,missing=27
								27:leaf=0.100161433
								28:leaf=0.00555048324
						20:[f4<1680786] yes=23,no=24,missing=23
							23:[f4<1096048.5] yes=29,no=30,missing=29
								29:[f4<977479] yes=35,no=36,missing=35
									35:[f5<152.154999] yes=43,no=44,missing=43
										43:leaf=-0.0238667633
										44:[f2<48.1800003] yes=53,no=54,missing=53
											53:[f0<15331235] yes=63,no=64,missing=63
												63:[f3<1871.82495] yes=71,no=72,missing=71
													71:[f2<41.5699997] yes=79,no=80,missing=79
														79:[f5<163.860001] yes=87,no=88,missing=87
															87:[f2<39.2449989] yes=97,no=98,missing=97
																97:[f0<1728139.5] yes=107,no=108,missing=107
																	107:leaf=0.0089138858
																	108:leaf=0.087165229
																98:[f2<40.6200027] yes=109,no=110,missing=109
																	109:leaf=-0.0252394807
																	110:leaf=0.0398725569
															88:[f2<36.3950005] yes=99,no=100,missing=99
																99:[f0<411187] yes=111,no=112,missing=111
																	111:leaf=-0.0262736809
																	112:leaf=0.0754809007
																100:leaf=-0.0823577791
														80:[f2<45.7999992] yes=89,no=90,missing=89
															89:leaf=0.090169549
															90:leaf=0.0129889762
													72:[f3<1880.92993] yes=81,no=82,missing=81
														81:leaf=-0.0907547399
														82:[f5<161.570007] yes=91,no=92,missing=91
															91:[f0<8140148.5] yes=101,no=102,missing=101
																101:leaf=0.0822010487
																102:[f5<158.639999] yes=113,no=114,missing=113
																	113:leaf=0.0745292604
																	114:leaf=-0.0311590973
															92:[f5<163.220001] yes=103,no=104,missing=103
																103:leaf=-0.0809481665
																104:[f2<43.5400009] yes=115,no=116,missing=115
																	115:[f2<42.1300011] yes=121,no=122,missing=121
																		121:[f5<164.100006] yes=129,no=130,missing=129
																			129:leaf=0.0520876423
																			130:leaf=0.000608198694
																		122:leaf=-0.084825173
																	116:leaf=0.0379187129
												64:leaf=-0.0522823036
											54:[f4<604683.5] yes=65,no=66,missing=65
												65:leaf=-0.00343146548
												66:leaf=0.0940905213
									36:leaf=-0.0824505985
								30:leaf=0.0906826109
							24:[f5<144.48999] yes=31,no=32,missing=31
								31:leaf=-0.0884393603
								32:[f5<145.720001] yes=37,no=38,missing=37
									37:leaf=0.0374542437
									38:[f0<36.5] yes=45,no=46,missing=45
										45:leaf=-0.0867819637
										46:leaf=-0.0227220599
			6:[f3<1710.6001] yes=11,no=12,missing=11
				11:leaf=-0.0862548724
				12:[f2<35.0900002] yes=17,no=18,missing=17
					17:leaf=0.0720693618
					18:leaf=-0.0487263985
		4:[f2<53.0999985] yes=7,no=8,missing=7
			7:leaf=0.00147986051
			8:leaf=-0.0620228425
	2:leaf=0.0719037876
booster[17]
0:[f3<1968.98999] yes=1,no=2,missing=1
	1:[f4<2709604] yes=3,no=4,missing=3
		3:[f4<2648852.5] yes=5,no=6,missing=5
			5:[f5<169.565002] yes=9,no=10,missing=9
				9:[f3<1281.15503] yes=13,no=14,missing=13
					13:[f5<123.164993] yes=15,no=16,missing=15
						15:leaf=0.0474513285
						16:leaf=-0.0720693991
					14:[f2<51.7450027] yes=17,no=18,missing=17
						17:[f4<2336528] yes=19,no=20,missing=19
							19:[f4<2225389] yes=23,no=24,missing=23
								23:[f4<2099749.5] yes=31,no=32,missing=31
									31:[f5<156.290009] yes=41,no=42,missing=41
										41:[f2<50.8800011] yes=55,no=56,missing=55
											55:[f3<1579.39502] yes=65,no=66,missing=65
												65:leaf=0.0851244479
												66:[f2<47.9749985] yes=73,no=74,missing=73
													73:leaf=0.0537007712
													74:leaf=-0.0295915585
											56:leaf=-0.0209992081
										42:[f3<1602.75] yes=57,no=58,missing=57
											57:leaf=-0.0735736638
											58:[f4<555722] yes=67,no=68,missing=67
												67:[f3<1764.79004] yes=75,no=76,missing=75
													75:[f2<39.2449989] yes=81,no=82,missing=81
														81:[f4<201751] yes=89,no=90,missing=89
															89:[f2<31.7649994] yes=103,no=104,missing=103
																103:leaf=0.0520231426
																104:[f2<35.2350006] yes=115,no=116,missing=115
																	115:[f0<1127147.5] yes=119,no=120,missing=119
																		119:leaf=-0.0588960014
																		120:leaf=-0.0127781257
																	116:leaf=0.0240266975
															90:[f4<311442.5] yes=105,no=106,missing=105
																105:leaf=0.0804131553
																106:leaf=0.0109731751
														82:leaf=-0.043852482
													76:leaf=0.0863844976
												68:[f2<48.2900009] yes=77,no=78,missing=77
													77:[f2<45.5449982] yes=83,no=84,missing=83
														83:[f2<39.8349991] yes=91,no=92,missing=91
															91:[f0<8919278] yes=107,no=108,missing=107
																107:leaf=-0.068334721
																108:leaf=0.0183544941
															92:[f4<588596.5] yes=109,no=110,missing=109
																109:leaf=-0.0477755331
																110:[f2<40.6800003] yes=117,no=118,missing=117
																	117:leaf=0.076931119
																	118:[f2<44.3499985] yes=121,no=122,missing=121
																		121:[f3<1907.46997] yes=123,no=124,missing=123
																			123:[f4<710388.5] yes=125,no=126,missing=125
																				125:[f4<674706.5] yes=129,no=130,missing=129
																					129:[f4<629507] yes=133,no=134,missing=133
																						133:leaf=-0.00636103004
																						134:leaf=0.0371208824
																					130:leaf=-0.0472270511
																				126:[f2<42.1200027] yes=131,no=132,missing=131
																					131:leaf=0.0865427628
																					132:leaf=-0.00684753666
																			124:[f4<814526] yes=127,no=128,missing=127
																				127:leaf=-0.0607590489
																				128:leaf=-0.0117733655
